<?xml version="1.0"?>
<opencv_storage>
<opencv_ml_svm>
  <format>3</format>
  <svmType>C_SVC</svmType>
  <kernel>
    <type>LINEAR</type></kernel>
  <C>1.</C>
  <term_criteria><iterations>10000</iterations></term_criteria>
  <var_count>128</var_count>
  <class_count>10</class_count>
  <class_labels type_id="opencv-matrix">
    <rows>10</rows>
    <cols>1</cols>
    <dt>i</dt>
    <data>
      0 1 2 3 4 5 6 7 8 9</data></class_labels>
  <sv_total>45</sv_total>
  <support_vectors>
    <_>
      1.06161006e-05 -4.58635077e-06 -1.18970192e-05 -6.69004294e-05
      5.76321836e-05 2.77978925e-05 -4.47429447e-05 1.80836960e-05
      2.76375395e-05 -1.24175167e-05 -9.23863627e-06 -3.31425952e-04
      -3.35999677e-04 8.40982248e-05 1.72390446e-05 6.51417895e-06
      -6.92659160e-06 2.80517743e-05 -4.72773536e-04 -4.99310321e-04
      3.72385560e-03 -7.47334037e-04 6.47598426e-06 6.21114486e-06
      -1.76834201e-05 -1.13184603e-06 -3.69737623e-04 -1.10512471e-03
      3.71276680e-03 -2.71132030e-03 2.84476118e-04 2.16199314e-05
      1.81955033e-06 2.97014136e-04 1.45429047e-03 -3.30055691e-03
      -1.22573471e-03 -3.08533921e-03 1.37850991e-03 6.92841422e-06
      6.07028460e-06 8.78832070e-04 9.21583909e-04 -1.58252358e-03
      5.34354767e-04 2.20561909e-04 2.22265790e-03 3.61025122e-05
      -3.66793793e-05 1.33003073e-03 1.40663108e-03 3.12594092e-03
      1.36077497e-03 2.71086418e-03 2.10775225e-03 1.83254218e-04
      -9.39450547e-06 1.51480443e-03 1.74500910e-03 9.78680095e-04
      -4.15167306e-03 1.56315230e-03 1.89499941e-03 2.54729151e-04
      6.34466996e-05 1.79652579e-03 5.48100658e-03 6.04606816e-04
      -5.13153663e-03 1.66297471e-03 8.92782700e-04 -1.94291024e-05
      3.81335885e-05 1.15006766e-03 6.18334953e-03 -6.30898925e-04
      -1.46747974e-03 4.27601486e-03 1.93645770e-03 1.59275805e-04
      6.32466254e-05 1.15088664e-03 4.15590685e-03 -2.25290656e-03
      2.65213754e-03 2.75422377e-03 9.23953368e-04 -7.48575476e-05
      -2.45560022e-05 6.68813824e-04 2.81011965e-03 -1.17639982e-04
      1.16988074e-03 -1.90262415e-03 6.10919160e-05 -3.57543089e-04
      -5.61857014e-05 4.75983921e-04 -1.05431234e-03 2.43247626e-03
      2.45537213e-03 4.05572500e-04 8.78788880e-04 -8.78993160e-05
      1.18932017e-04 2.31865284e-04 -1.90829669e-04 3.95663921e-03
      1.30503229e-03 1.02127588e-03 3.28840746e-04 0. 6.35272518e-05
      9.06178175e-05 -2.50662961e-05 3.88736953e-04 -3.03454523e-04
      2.61146401e-04 1.34087793e-04 0. 8.61116787e-05 3.39344333e-05
      1.17808493e-04 9.30327951e-05 3.04266159e-05 3.43711981e-05
      -1.61480202e-05 0.</_>
    <_>
      -1.63364835e-04 -2.73274229e-04 -1.62477983e-04 -3.55045690e-04
      2.20830898e-05 6.94906703e-05 4.05634455e-05 4.27488230e-05
      -1.02466634e-04 -1.64530327e-04 -7.44969933e-04 2.44739873e-04
      -5.30924182e-04 4.01395233e-03 -2.94455735e-04 6.01595202e-05
      -2.36379215e-04 -9.19781160e-04 -1.21410971e-03 1.72430347e-03
      -4.28890064e-03 -1.61006683e-04 -2.10809545e-03 1.93793176e-06
      1.34999806e-04 -3.59703205e-03 1.08469895e-03 2.83807516e-03
      3.39796371e-03 7.24027865e-04 -1.85950322e-03 4.89943741e-05
      -3.51950235e-04 -4.68225125e-03 2.39013229e-03 -8.26282660e-04
      1.48734020e-03 -3.34124925e-04 -1.33001688e-03 -8.16639731e-05
      -4.33876994e-05 -2.17254483e-03 3.45347915e-04 -5.15239430e-04
      -4.08433331e-03 -4.99765808e-03 1.68740307e-03 -4.91142913e-04
      -3.89275316e-04 3.96073796e-03 6.51240069e-03 1.71156432e-02
      1.29385479e-02 1.21423397e-02 1.02217877e-02 -1.13421911e-05
      -5.94991667e-04 5.26437117e-03 4.86231036e-03 2.14447291e-03
      -7.17735209e-04 8.44730437e-03 5.13284560e-03 -1.05483027e-03
      5.83374494e-05 5.66915190e-03 -4.11585579e-03 5.41263626e-06
      -9.74301342e-03 4.69757058e-03 7.35622691e-03 -1.13362900e-03
      -4.10343986e-04 1.11472781e-03 3.24384240e-03 -4.26840130e-03
      -3.38195474e-03 -8.07875115e-03 4.70981840e-03 -5.76936128e-03
      -1.03988190e-04 -2.56405072e-03 -2.43213493e-03 -3.42813972e-03
      -5.35795465e-03 9.88616608e-04 -2.51864898e-03 -3.32125975e-03
      -6.31651201e-04 1.94627828e-05 -4.99318168e-03 2.00482807e-03
      1.57940097e-03 -1.01825753e-02 -9.95187205e-04 -1.01533020e-03
      -1.13935652e-03 9.44454980e-04 -8.63585214e-04 -2.59222719e-03
      4.72432468e-04 -6.95336750e-03 3.71681782e-03 -4.49350366e-04
      -3.07469600e-04 -2.30998173e-03 -6.13156613e-03 8.47687386e-03
      -4.84195829e-04 -3.95269692e-03 -1.43629569e-03 -6.86995845e-05
      -9.54591378e-05 -1.89225815e-04 -8.52674770e-04 8.07142991e-04
      -4.34931973e-03 -1.66062042e-02 -1.06833097e-04 -3.55534394e-05
      1.03026568e-05 -3.07969662e-04 2.29099140e-04 2.43256291e-04
      5.45171097e-05 -2.22549983e-03 -3.29325034e-04 -2.50514149e-05</_>
    <_>
      -8.52461817e-05 -5.52141973e-05 -2.07013727e-05 -4.14765100e-06
      7.46227306e-05 1.73971595e-04 8.23202481e-06 1.36344106e-05
      -8.81569431e-05 -9.74507348e-05 -1.22702724e-04 -1.69707474e-03
      -2.74714688e-03 -1.38603454e-03 9.11199750e-05 1.35490236e-05
      -1.28122643e-04 -3.18155275e-04 -2.56246002e-03 -5.63755957e-03
      -3.41318693e-04 -1.17489824e-03 1.81097153e-03 -2.33508017e-05
      -1.21602461e-04 -1.97570538e-03 -5.96290827e-03 -4.45552822e-03
      1.33997877e-03 -1.32423826e-03 1.31243374e-03 -9.19971790e-05
      -1.60370619e-04 -1.52113056e-03 -2.65494850e-03 -7.27885286e-04
      3.98912409e-04 -2.34454102e-03 -7.66805140e-04 -1.41136712e-04
      1.95075481e-05 -4.71178297e-04 2.28721718e-03 -2.39236583e-03
      3.40262568e-03 -5.97772829e-04 2.82104989e-03 2.14215161e-05
      -9.54188290e-05 8.72641744e-04 3.12636676e-03 -1.98413013e-03
      -1.59976119e-03 3.67618602e-04 5.13870735e-03 5.17291628e-05
      8.79030558e-05 1.00449100e-03 -5.47232281e-04 1.75412372e-03
      -1.11693097e-02 -2.52230000e-03 3.73772811e-03 1.63860695e-05
      1.24756480e-04 2.02516490e-03 4.60134773e-03 2.35191057e-03
      -7.17393775e-03 3.31788469e-04 1.17270392e-03 -4.99058922e-04
      1.61498479e-04 3.98222683e-03 7.71789020e-03 1.70235580e-04
      -5.70771005e-03 -9.08552785e-04 2.10309634e-03 -1.02109800e-03
      -2.20758768e-04 1.58154126e-03 1.53630390e-03 8.43544863e-03
      -1.68344472e-03 -2.30586529e-03 -4.66821948e-05 -1.08118798e-03
      -6.08701783e-04 -4.58861887e-03 2.59877386e-04 4.39768797e-03
      -7.61397358e-04 -3.28382780e-03 -4.08061128e-03 -8.38213251e-04
      -6.00309722e-05 -2.67512194e-04 1.48586836e-03 6.51870668e-03
      -2.85872782e-04 -1.45113328e-03 -4.06917650e-03 4.48925348e-05
      -4.07850275e-05 -9.06930713e-04 -1.93374685e-03 7.70765962e-03
      2.59376946e-03 1.81413314e-03 -1.20108598e-03 -3.44231521e-05
      -4.73316431e-05 -1.63086504e-03 -2.89542833e-03 -1.08406192e-03
      2.90623098e-03 2.67389172e-04 1.37989773e-04 -3.44231521e-05
      1.75021079e-04 -1.01337479e-04 -1.71372798e-04 6.43132371e-05
      8.86357593e-05 1.57220456e-05 -3.00254101e-06 0.</_>
    <_>
      1.55375085e-06 -3.47003042e-05 5.10937098e-05 4.60857955e-05
      1.87277183e-05 2.70201144e-05 2.18656696e-05 -1.35249729e-05
      1.71912834e-05 -5.21980337e-06 -5.25645301e-05 -7.89783298e-05
      3.39089485e-04 3.23797925e-04 -2.42744572e-05 -1.25119850e-05
      5.58664169e-06 9.37394634e-06 -7.86053017e-04 -4.62157681e-04
      2.39709392e-03 8.20475689e-04 -5.49615768e-04 -5.26582699e-05
      -1.08217528e-05 2.72644957e-05 -1.22946082e-03 1.68164668e-03
      2.49121897e-03 -1.42241071e-04 -1.67336687e-03 -2.34314837e-04
      -1.92806619e-05 -2.11703504e-04 -7.84333504e-04 8.72460776e-04
      3.00449028e-04 -1.25871354e-03 -8.84971523e-04 -2.15695545e-04
      1.90232768e-05 -4.09186672e-04 -2.23300798e-04 3.38691316e-04
      4.00935113e-03 1.28737837e-03 4.52952896e-04 -2.82433189e-06
      -1.52084078e-06 1.87645070e-04 -4.76475019e-04 1.82344334e-03
      1.51060882e-03 2.02957843e-03 1.96343614e-03 -3.93826413e-05
      -2.07915655e-05 3.81515682e-04 -1.46421045e-03 -3.88875342e-04
      -3.75147071e-03 -1.86014327e-03 1.74305402e-03 -5.18356916e-04
      -6.00642124e-05 2.95279227e-04 2.52164929e-04 -7.42215023e-04
      -5.29652368e-03 -5.21959737e-04 1.79563963e-03 1.19439515e-04
      -1.57227187e-05 2.57098494e-04 1.55281770e-04 -8.82056134e-04
      -3.82630457e-03 -1.21309352e-03 1.17425702e-03 3.69044690e-04
      3.25060828e-05 6.65209445e-05 -2.85969763e-05 -1.22458290e-03
      -1.84101204e-03 -2.00029020e-03 1.69867335e-03 1.59720745e-04
      1.28195767e-04 1.17278821e-03 3.19034001e-03 3.13057401e-03
      -7.43120792e-04 -1.81077525e-03 1.09817949e-03 3.16942387e-05
      1.35751339e-04 1.36512192e-03 2.83297431e-03 4.33754781e-03
      2.84138252e-03 -2.69630551e-03 4.58255890e-05 2.24330051e-05
      6.51195805e-05 3.02390486e-04 5.97508588e-05 6.31614239e-04
      1.02164503e-03 -8.84617970e-04 -3.33479431e-04 0. 1.86953548e-05
      -1.65657504e-04 -4.44319623e-04 -5.23129944e-04 2.52754864e-04
      2.33234514e-05 -2.60183970e-05 0. 2.80116674e-05 4.89492159e-05
      2.68175663e-05 1.42448771e-05 -9.82194251e-05 -4.66185047e-05
      7.60703551e-06 0.</_>
    <_>
      5.67478673e-05 -1.34020403e-04 -3.32366581e-05 1.48624706e-04
      -9.01225139e-05 -1.70504518e-05 -2.27740675e-04 -1.75574256e-04
      1.34956004e-04 2.62164453e-04 -3.11399228e-04 -2.86171009e-04
      -4.29560617e-03 4.57091199e-04 4.78434922e-05 -4.22172634e-05
      -4.43682293e-05 -3.71246686e-04 -4.77248104e-03 1.69549149e-03
      7.91340135e-03 -8.67331307e-03 4.53531370e-03 1.17372314e-03
      1.75591311e-04 -1.61183113e-03 -9.52235423e-03 -2.37637490e-04
      8.41176510e-03 1.75374420e-03 -3.76989623e-03 -1.31390733e-03
      -4.96559718e-04 -5.97960362e-03 -1.16668979e-03 -8.64436268e-04
      5.81282750e-03 -5.93748526e-04 -6.45932881e-03 -9.97639447e-03
      -5.07802142e-05 -1.99910672e-03 -1.40409055e-03 -1.03847785e-02
      6.56147161e-03 3.97795491e-04 4.97303018e-03 -1.51180355e-02
      -1.95212458e-04 2.25529564e-03 3.41000478e-03 -1.76986068e-04
      -7.30244583e-03 6.59846747e-03 7.06011429e-03 -8.21401644e-03
      1.55058471e-04 4.89908364e-03 -4.71705990e-03 3.12014046e-04
      -9.79295932e-03 5.44324797e-03 7.06557045e-03 -1.03824120e-03
      -3.10183532e-04 1.11887679e-02 4.54649422e-03 2.02645408e-03
      -9.49613657e-03 -1.00846381e-04 1.28926022e-03 1.53202214e-03
      3.27218499e-04 1.00550791e-02 2.21581408e-03 -5.11287712e-03
      6.71102025e-04 2.12232443e-03 -4.79223527e-04 -2.01919411e-05
      -4.92529594e-04 3.46827554e-04 9.97439586e-03 4.99396957e-03
      -4.96188411e-03 1.62687746e-03 2.58275511e-04 -1.84522767e-03
      -1.65562739e-03 -2.03929609e-03 -6.33607898e-03 8.92827462e-04
      2.30039959e-03 -8.75855144e-03 1.30905875e-03 -2.28561834e-03
      -5.48271579e-04 -1.90745853e-03 3.10096402e-06 4.14237240e-03
      1.24434277e-03 -4.10076091e-03 -4.19378700e-03 -9.45647887e-04
      5.95157835e-05 6.28304854e-03 -5.58275171e-03 9.13862884e-03
      -5.99877723e-03 3.53053608e-03 -4.09501838e-03 -7.43703204e-05
      -6.34176249e-05 3.12486337e-03 -2.84716976e-03 -6.19485625e-04
      4.21977835e-04 1.34804507e-03 -2.00030117e-04 -7.43703204e-05
      4.93918778e-05 -1.86684585e-04 -7.92661740e-05 -1.76157468e-04
      -3.68102570e-04 3.54681310e-04 -2.48434430e-04 -7.43703204e-05</_>
    <_>
      3.05288500e-04 8.71510420e-05 2.14221844e-04 -8.97402861e-05
      -6.07450784e-04 1.39410313e-05 1.26744271e-04 -6.79111281e-06
      -6.28332564e-05 2.96137558e-04 -7.11426546e-04 -4.40440606e-03
      -2.27933237e-03 1.55594572e-03 -8.95296456e-04 6.60015285e-05
      -4.00566969e-05 8.07703909e-05 -1.02034258e-03 -4.66824276e-03
      8.06997623e-03 -2.52464390e-03 -2.80189863e-03 -2.24383693e-04
      -8.55799008e-05 1.90845807e-04 3.34057346e-04 7.98744615e-03
      8.63972586e-03 -1.12125021e-03 3.70066683e-03 -2.50208913e-03
      -1.23025588e-04 1.10624213e-04 -1.86459758e-04 3.63541069e-03
      2.68875761e-03 1.31195439e-02 -3.56851728e-04 -1.86149974e-03
      7.86323362e-05 1.38167408e-03 -5.05118922e-04 -2.42277607e-03
      8.37797578e-03 8.57519545e-03 1.51642505e-03 5.08795958e-04
      2.83629870e-05 3.42591107e-03 -1.06527051e-03 5.22747356e-03
      2.54428992e-03 5.65311173e-03 9.65024251e-03 3.62337276e-04
      1.01328937e-04 6.41345279e-03 -1.44672740e-04 2.42601894e-03
      -8.57534073e-03 -3.80536797e-03 3.60231451e-03 -7.48107617e-04
      5.51799370e-04 4.60728630e-03 1.44323427e-03 -5.07986580e-04
      -4.31654695e-03 -1.47481071e-04 -1.08275446e-03 6.00521598e-05
      3.20975640e-04 6.49727834e-03 -7.19191507e-04 -5.57406759e-03
      -9.89620108e-03 2.01702188e-03 -2.07808451e-03 7.72497733e-04
      -1.98774040e-04 3.64614511e-03 -9.04934574e-03 -1.16361212e-03
      -1.24392787e-03 -2.53275409e-03 -3.47950234e-04 5.13868836e-05
      -2.91506527e-04 2.41637882e-03 -8.74906546e-04 1.92746508e-03
      -6.81695482e-03 -6.10842044e-03 -2.24354910e-04 3.46422137e-04
      -2.37260378e-04 2.19684769e-03 -1.36131432e-03 2.92710541e-03
      -4.20908583e-03 -1.40621858e-02 6.78385701e-03 6.64618929e-05
      1.10490306e-04 1.39162265e-04 -5.97951235e-04 8.53647757e-03
      1.77770760e-03 4.12659906e-03 1.43300253e-03 0. 1.85925601e-04
      7.30221436e-05 1.27890060e-04 7.67466787e-04 -5.56400300e-05
      8.93096440e-05 1.18539523e-04 0. 2.40870169e-04 1.45845579e-05
      8.91654418e-05 1.69671723e-04 -2.23214709e-04 -2.02384792e-04
      -3.63436957e-05 0.</_>
    <_>
      1.39322519e-05 -2.95128830e-05 1.45638396e-05 -5.06454990e-06
      1.55610251e-05 3.56481105e-05 1.78611663e-05 2.31076342e-06
      5.20737303e-05 3.14370191e-05 -4.07976040e-05 5.69326185e-05
      6.38070167e-04 1.56051959e-04 -2.23112220e-05 -3.85124549e-05
      -6.77015269e-05 2.63074999e-05 -4.32437402e-04 6.00693340e-04
      5.39612118e-03 1.33585755e-03 -1.37220050e-04 -5.60948683e-06
      1.61625630e-05 -3.97800119e-04 -2.78786989e-03 1.86113978e-03
      3.94739117e-03 2.71199876e-03 -9.20563762e-04 5.41322015e-06
      3.85164776e-06 -3.00893467e-03 -2.82992609e-03 -5.14210842e-04
      4.86863602e-04 -1.92744003e-04 3.31366435e-04 -5.17514964e-05
      -1.02678838e-04 -2.69388407e-03 -2.17523635e-03 1.67243101e-03
      1.46562106e-03 -2.73004384e-03 -5.44471877e-05 -3.21961670e-05
      -1.61678079e-04 -1.40929269e-03 1.14132045e-03 2.01827008e-03
      -1.48449780e-03 -4.25604754e-04 -1.38946212e-04 3.48908325e-05
      -1.19790137e-04 3.66645021e-04 1.13326567e-03 9.67956585e-05
      -3.24506476e-03 7.48326886e-04 -2.01845658e-04 4.12199268e-04
      -6.03303051e-05 2.78780324e-04 -3.42062762e-04 2.17630807e-03
      -4.33088467e-03 -1.64554617e-03 2.16422207e-03 7.36911665e-04
      -9.41213439e-05 -4.92110325e-04 -8.58988729e-04 1.91645551e-04
      -5.08232554e-03 -2.36233207e-03 4.29024454e-03 4.94937180e-04
      1.92009742e-04 2.53420323e-03 4.08169441e-03 3.39861191e-03
      -1.59120944e-04 8.78906925e-04 1.55392266e-03 -3.41577746e-04
      7.63584045e-04 4.54767747e-03 5.74002229e-03 1.55411917e-03
      -7.24051060e-05 -1.72164640e-03 -3.86613072e-04 -2.68838281e-04
      8.04390060e-04 2.41173757e-03 1.54115516e-03 7.24722981e-04
      1.76578073e-03 8.09274643e-05 -6.11120704e-05 4.64650620e-05
      3.15875164e-04 -2.44279712e-04 -1.15395267e-03 2.19354033e-03
      1.55196431e-05 1.13498652e-03 -6.75412477e-04 0. 3.67899993e-05
      -1.73896039e-03 -2.16448773e-03 -2.54159770e-03 -1.81438145e-03
      -3.01552296e-04 -1.16426288e-03 -1.81534378e-05 8.35277679e-05
      -5.53206308e-04 -4.52010543e-04 -1.04954524e-03 -5.51027188e-04
      -1.14213173e-04 -8.87290924e-04 -9.07671892e-06</_>
    <_>
      -1.02940176e-04 -1.55747359e-04 -8.68096031e-05 -1.73515091e-05
      1.33637572e-04 8.24264134e-06 -3.54860786e-05 -2.23976986e-05
      -1.63230608e-04 -1.18319404e-04 -1.20487224e-04 1.25204606e-04
      8.27023643e-04 -9.08107977e-05 -5.88723888e-05 -8.94663845e-06
      -1.22109734e-04 -7.26416984e-05 -6.93283917e-04 -2.15383130e-03
      4.65744734e-03 -2.13548145e-03 -1.28356693e-03 -2.38922075e-05
      -1.42834557e-04 -8.41264336e-05 -2.19712243e-03 -3.06551554e-03
      1.96636817e-03 -9.02910368e-04 -5.93688572e-04 -6.98215954e-05
      -2.76205719e-05 1.90385865e-04 -1.83080370e-03 -1.60472596e-03
      3.91003769e-03 -3.74235027e-03 -4.38804476e-04 -2.37371874e-04
      -7.05800048e-05 1.00399877e-04 -3.61762126e-03 -4.55449009e-03
      3.03720823e-03 -8.63532128e-04 -7.85318553e-04 -2.78937892e-04
      -9.91896522e-05 6.63239101e-04 -1.83174061e-03 8.60289671e-04
      5.42752258e-03 1.21461321e-03 -1.10162182e-04 -2.00676659e-04
      5.32316444e-05 1.37402036e-03 3.40509869e-05 6.88436674e-04
      -6.87394850e-03 9.93150170e-04 2.97030737e-03 -8.10703568e-05
      9.00568630e-05 2.19123694e-03 3.68814496e-03 -5.41535346e-03
      -1.12584000e-02 1.29429146e-03 2.89795827e-03 -2.27490338e-04
      3.98082466e-06 1.69209368e-03 3.57353385e-03 -5.85632725e-03
      -6.15490368e-03 -1.48379346e-04 1.93962327e-03 3.84422165e-05
      -1.12149166e-04 1.64284883e-03 1.02130281e-04 -1.56199012e-03
      4.61748190e-04 2.58479500e-03 3.87709064e-04 1.64874673e-05
      -7.09106098e-05 -1.75602647e-04 -2.01447052e-04 5.00014750e-03
      6.22706907e-03 -5.02317119e-03 1.13362365e-03 5.09788515e-05
      6.75894335e-05 5.85380476e-04 1.08054094e-03 1.61299133e-03
      2.74653849e-03 1.04728725e-03 2.06527096e-04 -8.12492508e-05
      1.10740541e-04 1.48514530e-03 2.76882108e-03 5.67351817e-04
      2.15946673e-03 2.85455585e-03 -5.21387439e-04 -1.59276442e-05
      1.58435854e-04 8.51088203e-04 6.63246145e-04 -6.17285783e-04
      2.23463241e-04 -4.31970839e-05 6.53597162e-05 -1.40988177e-05
      1.52077992e-04 1.14758637e-04 1.02477752e-05 -5.92518008e-05
      2.61818514e-05 -7.28658188e-06 -7.98731417e-05 -1.82882661e-06</_>
    <_>
      -1.13316411e-04 1.06044965e-04 -3.08042618e-05 5.74572950e-05
      -5.44997056e-05 -4.97287947e-05 -4.31820299e-05 3.98832781e-05
      1.51142420e-04 -7.26197977e-05 -8.90905139e-05 3.42672211e-05
      7.18081661e-04 9.77056683e-04 -2.43447212e-04 1.68324259e-05
      -1.27936219e-04 -3.76052194e-05 -1.11894442e-05 2.16188398e-03
      3.18792090e-03 4.21876507e-03 5.17689157e-04 -1.97005120e-05
      -4.18219242e-05 3.68398942e-05 -3.51565075e-04 4.08935174e-03
      6.89386157e-04 -2.13696528e-03 3.89373116e-03 1.77090933e-05
      3.47437731e-06 -3.17914702e-04 -2.89375032e-03 -1.32443360e-03
      2.94873421e-03 6.78783341e-04 4.33393428e-03 8.58213054e-04
      -1.16970521e-04 -1.48722623e-03 -1.96209364e-03 8.96826823e-05
      6.63579348e-03 -1.34205376e-03 -3.57700745e-03 6.87246036e-04
      -3.06462607e-05 -2.33463128e-03 -3.05829127e-03 -5.16761839e-03
      -1.57849409e-03 -1.96981430e-03 -2.95505207e-03 5.94556623e-04
      -4.31634078e-04 -1.83450372e-03 -1.21605837e-04 2.57452740e-03
      -8.75259563e-03 -1.21268770e-03 -1.12096325e-03 4.49069077e-04
      -4.73029213e-04 4.00203001e-03 5.04008587e-03 5.53358113e-03
      -5.18384902e-03 -8.77120532e-03 2.51358817e-03 6.35092729e-04
      -2.25179596e-04 3.09816119e-03 3.10497987e-03 -4.30390064e-04
      -6.48853043e-03 2.11133645e-03 3.33454879e-03 5.64165879e-04
      9.89348846e-05 1.82492426e-03 4.78605926e-03 -3.09455302e-03
      -1.02850376e-03 4.25923523e-03 3.33067356e-03 3.15656012e-04
      -1.85145676e-04 2.19543139e-03 2.94667319e-03 6.70270342e-03
      -8.11774924e-04 -4.56354208e-03 1.35137537e-03 3.09070820e-05
      -2.33550032e-04 3.70027847e-03 -2.10174755e-03 -1.85596617e-03
      6.63760176e-04 -5.50434366e-03 -1.51747779e-03 2.64332175e-05
      -1.89717000e-04 9.67548753e-04 1.08229789e-04 9.77411307e-03
      -9.93833295e-04 -6.54063188e-04 -2.03877431e-03 -6.18507829e-06
      -3.24301509e-05 -7.02347315e-05 -3.33443121e-03 -4.93465737e-03
      2.17378885e-03 -1.89189380e-03 -1.35590893e-03 -1.83387656e-05
      3.78348195e-05 1.18331445e-04 -1.34155375e-03 -1.12967636e-03
      2.71345576e-04 -4.84231423e-04 -3.79325298e-04 -2.45238443e-05</_>
    <_>
      -2.57653446e-04 -2.41038448e-04 -1.15671835e-04 -1.16364518e-03
      -4.97916306e-04 -2.81780958e-04 7.28329323e-05 1.03187005e-04
      -1.55542002e-04 -2.79183791e-04 -3.29949521e-03 -1.94541505e-03
      6.23225793e-03 2.19734712e-03 4.34643152e-04 7.44377394e-05
      7.97782559e-06 4.31489025e-04 -9.16643708e-04 -2.06246995e-03
      5.57895936e-03 3.74832860e-04 9.79800709e-04 1.29246851e-04
      -2.18944861e-05 1.29762932e-03 6.55693142e-03 -5.66165755e-03
      -9.47271567e-03 -1.06316336e-04 4.45266254e-03 7.43703567e-05
      -4.97759960e-04 -1.28180785e-02 -2.93598557e-03 5.64665254e-03
      -1.98326888e-04 1.88925711e-03 7.00360583e-03 1.02571412e-05
      3.47671361e-04 -1.09409755e-02 -4.27978672e-03 3.27776023e-03
      4.99085849e-03 -2.87387986e-03 8.08004042e-05 7.34515605e-04
      3.54455318e-04 1.28225118e-04 -7.65866716e-05 4.49033873e-03
      6.14500081e-04 -7.05622137e-03 -1.45337172e-03 1.44490285e-03
      2.95856880e-04 1.10874104e-03 -1.80645089e-04 9.37808212e-03
      7.62597332e-03 -6.67033624e-03 -2.11465824e-03 3.66379420e-04
      -3.00727588e-05 -1.16782414e-03 -7.35929562e-03 6.91417418e-03
      8.97864532e-03 -9.71629843e-03 -1.67861581e-03 -3.75119445e-04
      -2.57370521e-05 -2.70061707e-03 -1.09177874e-02 -3.86195001e-03
      -1.25565846e-03 -7.81582016e-03 -4.83669527e-03 -7.04951817e-04
      -3.63952975e-04 -7.88681908e-04 -8.04501772e-03 -3.74534610e-03
      -2.58519896e-04 3.94387636e-03 -1.02822892e-02 -2.02808133e-03
      -3.05838505e-04 2.04224241e-04 -5.31364558e-03 -5.54106198e-03
      -7.76497589e-04 -3.10489116e-03 5.20602101e-03 6.58189063e-04
      3.44803237e-04 -4.63595410e-04 6.49482943e-03 9.26718989e-04
      -2.63958215e-03 -1.52238170e-02 -7.80428480e-03 6.23414177e-04
      -2.06671175e-04 -1.12613686e-03 -5.73786732e-04 -8.05171032e-04
      9.80805838e-04 -9.43883136e-03 -6.78289216e-03 0. -1.91440049e-04
      1.03532616e-03 1.83512887e-03 3.18514416e-03 1.37091090e-03
      -3.79801774e-03 -2.26402027e-03 0. 3.25726651e-05 -4.88022662e-04
      -3.98423435e-05 3.10462085e-04 -9.27543879e-05 -1.15993615e-04
      -7.60084076e-05 0.</_>
    <_>
      -3.29848612e-04 -1.68884028e-04 -1.32848159e-04 -1.00442012e-04
      3.34108336e-04 4.28292173e-04 2.07795194e-04 6.59173456e-05
      1.17319803e-04 -1.49875748e-04 -2.28153644e-04 -4.47039201e-04
      -1.40328414e-03 -2.16431930e-04 -1.72232292e-04 1.05367644e-05
      -2.94634403e-04 5.18462330e-04 4.76323272e-04 -9.16880462e-03
      -2.91785947e-03 -1.23901176e-03 1.43937592e-03 5.07883742e-05
      -4.80371586e-04 -1.75803318e-03 -2.06096470e-03 -6.83362130e-03
      1.12615759e-03 -2.77615531e-04 8.42717942e-03 1.02752951e-04
      -7.97977613e-04 -4.30851709e-03 -1.17646987e-02 -2.69740215e-03
      -6.35675853e-03 5.75707760e-04 6.79856725e-03 2.47237003e-05
      -1.11854497e-04 -1.62431505e-03 -3.09716328e-03 1.53334448e-02
      -3.36770248e-03 -7.93755800e-03 -2.04549567e-03 5.65275957e-04
      -5.77227096e-04 -2.09691236e-04 1.67721801e-03 6.63547218e-03
      1.21382941e-02 -1.40017085e-02 -1.40063034e-03 1.42758270e-03
      -7.84367265e-04 2.18027947e-03 2.67234095e-03 -1.10417940e-02
      1.30796367e-02 -1.23117240e-02 1.10188803e-05 4.10002103e-04
      1.61809774e-04 5.62592701e-04 -8.23396910e-03 -2.97128456e-03
      -3.93089838e-03 -1.01677049e-02 -1.00014289e-03 3.94102681e-05
      -1.57922070e-04 1.53550587e-04 -1.81146152e-03 9.41211917e-03
      1.07890982e-02 -8.05413444e-03 -3.03469645e-03 7.99486079e-05
      -2.63236434e-04 5.37322660e-04 -2.74455687e-03 9.84706543e-03
      -3.22636822e-03 -2.08225008e-03 3.47300898e-03 9.10888484e-04
      -5.21499198e-04 6.14572142e-04 -1.27211595e-02 7.07113463e-03
      -2.21628253e-03 3.90282366e-03 1.05108321e-02 2.63215182e-03
      -5.34089457e-04 1.70920906e-03 4.38706856e-03 -5.50307985e-03
      1.92968978e-03 -4.25217091e-04 6.33097487e-04 3.81562422e-04
      -4.43762663e-04 -2.07723165e-03 2.35118860e-04 -2.68212450e-03
      -4.30543441e-03 5.06395707e-04 -4.93196072e-04 -5.29554018e-06
      -1.66549260e-04 -2.47051427e-03 -9.66638885e-03 -8.41780100e-03
      -3.92280665e-04 -1.67135426e-04 -4.68762853e-04 -5.29554018e-06
      1.87646510e-04 -6.38923026e-04 -1.57296308e-04 -2.90741387e-04
      3.61538085e-04 2.19250549e-04 -2.33784172e-04 -2.64777009e-06</_>
    <_>
      -1.42700839e-04 -3.92607268e-04 -2.48787692e-04 -1.44444508e-04
      1.01395854e-04 -1.12527778e-04 8.88236027e-05 1.04785868e-05
      -1.47548315e-04 -3.97527125e-04 -4.36940718e-05 -2.45919091e-06
      -2.18070491e-04 4.61032323e-04 8.16797401e-05 1.04785868e-05
      -1.62185825e-04 2.63201189e-04 3.85035202e-03 1.54367078e-03
      1.85095676e-04 2.32610546e-04 5.52537036e-04 3.80384699e-05
      -2.47619784e-04 2.09488207e-03 2.86636944e-03 2.97336583e-03
      5.78643288e-03 2.72097019e-03 2.21810979e-03 1.05998042e-04
      -3.23130924e-04 -1.80122934e-05 -8.49315838e-04 -1.73177450e-05
      -1.79640891e-03 3.04720132e-03 1.47932838e-03 1.30008475e-05
      -2.12953659e-04 -7.40178046e-04 -5.56556368e-03 1.87298772e-03
      5.53165853e-04 3.56463832e-03 -2.80968176e-04 2.64630416e-05
      -9.54819188e-05 -1.06046931e-03 -1.05244778e-02 -3.29239483e-05
      3.17384023e-03 -3.51880258e-03 -7.80211994e-04 7.87210301e-05
      -2.55419611e-04 -8.03079456e-04 -9.22667515e-03 -3.40180262e-03
      4.83163819e-03 -3.15177301e-03 -7.28226791e-04 1.32315208e-05
      -1.55325179e-04 -9.60769306e-04 -4.28261701e-03 -4.43704147e-03
      -9.24836099e-03 -2.84160604e-03 -9.55799711e-04 3.11854819e-06
      -2.70919874e-04 1.72642199e-03 -2.61705741e-03 -8.37491301e-04
      -6.72192127e-03 -7.59902457e-03 -5.50534693e-04 -2.36122037e-06
      -2.38332854e-04 1.22304237e-03 -1.82363705e-03 -7.37142749e-03
      -9.61185142e-04 -3.81653244e-03 -5.87894465e-04 -2.36122037e-06
      -1.44870370e-04 -1.10388035e-04 3.43866413e-03 5.93157578e-03
      4.00481792e-03 7.50483666e-03 8.55067978e-04 -1.09595376e-05
      -1.18673321e-04 4.73969732e-04 2.69425474e-03 7.22917821e-03
      3.26968660e-03 8.27319920e-03 2.29648827e-03 3.11854819e-06
      -1.76242276e-04 8.96173820e-04 2.41632108e-03 2.47008307e-03
      4.93804505e-03 4.94540855e-03 1.59080478e-03 0. -1.42466131e-04
      3.91681271e-04 2.51738983e-03 -4.02491493e-03 -2.21400498e-03
      7.58937531e-05 1.68482598e-04 0. 3.16493970e-05 -1.22805213e-04
      2.54878454e-04 -1.27836969e-03 -1.07709784e-03 5.77005740e-05
      -1.05239569e-05 0.</_>
    <_>
      1.20747100e-04 6.09513081e-05 1.43341749e-04 2.24188960e-04
      -2.47754913e-04 -1.20822719e-04 -3.24163739e-05 8.89589955e-06
      -2.10456510e-05 3.67155153e-05 1.30878063e-04 1.03154196e-03
      -2.53613456e-04 -7.49603641e-05 4.02292899e-05 -3.26294939e-05
      1.33492111e-04 1.85275800e-04 1.15072995e-03 2.02901079e-03
      -5.78021770e-03 5.25889546e-03 -2.64676823e-03 -1.61185846e-04
      7.05952552e-05 6.71098940e-04 3.93674709e-03 -3.57285701e-03
      -1.49903365e-03 -1.49716029e-03 -4.35503991e-03 -2.58133543e-04
      1.45550061e-04 -5.08035300e-04 4.07487946e-03 1.63110055e-03
      4.11066198e-04 -1.48420641e-03 -2.91147013e-03 -1.80903322e-03
      8.65575130e-05 -1.43550511e-03 1.41987606e-04 3.04090371e-03
      3.74522968e-03 1.03033625e-03 -6.49208808e-03 -1.12776901e-03
      1.42926787e-04 -6.71128510e-04 7.22811150e-04 -8.24658107e-03
      2.38117995e-03 2.37437850e-03 -2.49625812e-03 1.21291423e-05
      -9.36902434e-05 2.66537769e-03 -3.43268272e-03 -4.55748383e-03
      6.68812497e-03 -6.02398126e-04 -3.14802420e-03 -6.67886925e-05
      -1.07757995e-04 -1.23554433e-04 -8.07758607e-03 -1.80010311e-03
      5.29944664e-03 -5.41260187e-03 -1.64638576e-03 -3.48440197e-04
      -1.17364347e-04 -1.90606003e-03 -7.98514695e-04 4.28109430e-03
      1.32344663e-03 -7.95637537e-03 -1.63408753e-03 -4.45065554e-04
      -2.23402531e-04 -3.57843260e-03 -4.37919004e-03 3.32273636e-03
      -8.97988863e-03 -4.44043335e-03 -7.13469286e-04 -7.99398840e-05
      -2.16188360e-04 -2.77013145e-03 -6.46802876e-03 8.13633762e-03
      2.08535697e-03 1.97264715e-03 -4.49705229e-04 3.88756773e-04
      -8.08400146e-05 3.22792819e-03 1.05054595e-03 -7.48983631e-03
      4.07625642e-03 3.51956318e-04 -2.64786975e-03 -1.87585174e-04
      4.09450222e-05 8.07618781e-04 -4.67951503e-03 -5.31926379e-03
      2.12323014e-03 1.63769582e-03 -7.83166965e-04 -1.23122563e-05
      1.34553600e-04 -1.53636764e-04 -8.85661168e-04 -1.59526605e-03
      -2.23394437e-03 -2.37135799e-03 -2.77355604e-04 -1.23122563e-05
      -1.34682254e-04 -2.04040494e-04 6.32043302e-05 1.91521132e-04
      -1.08486609e-04 -8.67670984e-04 -1.03640916e-04 -1.23122563e-05</_>
    <_>
      3.28721512e-06 -8.52844005e-06 2.03393320e-05 -9.39550955e-05
      -1.33069669e-04 7.80870032e-05 2.57171614e-05 1.39149361e-05
      2.06251866e-06 2.22866165e-05 -4.26115148e-05 -9.89319306e-05
      -3.54839116e-03 -2.14128941e-03 9.98167379e-05 5.97056169e-06
      2.48970227e-05 8.30722420e-05 3.93143680e-04 1.45726069e-03
      -1.98265398e-03 -5.28419437e-03 1.65511185e-04 -8.93619363e-05
      2.77270447e-05 3.35722871e-04 2.39738799e-03 4.75866441e-03
      2.83325301e-03 4.68635728e-04 -3.96525254e-04 -1.20157446e-03
      1.02092499e-05 1.49404790e-04 2.42587528e-03 6.83032582e-03
      4.76072426e-04 2.82712979e-03 -5.70326927e-04 -9.23537707e-04
      2.03827458e-05 9.59394310e-06 4.56935377e-04 5.40264137e-03
      3.07752751e-03 2.92988913e-03 -9.58939025e-04 1.79992654e-04
      1.65861329e-05 1.56102848e-04 -7.25909835e-04 -7.92804407e-04
      7.05732126e-03 9.11122421e-04 -1.98091497e-03 3.95156036e-04
      -1.89180617e-04 -1.13660579e-04 -1.85910694e-03 -3.63559951e-03
      5.41791203e-04 -9.09559836e-04 -2.07023742e-03 7.71568812e-05
      1.16282325e-04 -3.58659279e-04 -3.69916647e-03 -2.98895547e-03
      6.02775952e-03 -5.02883736e-03 -2.63898703e-03 4.46496961e-05
      -1.48301435e-04 -2.51713791e-04 -4.73963097e-03 -2.53612618e-03
      -1.27091282e-03 -7.69625278e-03 -2.30795634e-03 -1.12593461e-05
      -1.31591325e-04 -1.31521723e-04 -5.70910284e-03 -5.67818701e-04
      -4.58822632e-03 -5.08096814e-03 -2.21358438e-04 1.08931548e-04
      -1.60713913e-04 8.01139977e-04 -1.54324202e-03 -6.12008967e-04
      -2.61673145e-03 -4.29716473e-03 1.49522128e-03 3.74787458e-04
      -7.36631991e-05 8.86062684e-04 1.74032268e-03 -3.13785044e-03
      -3.23441951e-03 -1.95694435e-03 -5.46163938e-06 5.47024538e-05
      -4.83437216e-05 -1.92997377e-05 -1.42531659e-04 1.61275978e-03
      3.87429236e-03 3.08620767e-03 -1.16450583e-05 0. -3.32231843e-06
      8.65873080e-05 -1.72286527e-05 2.61118403e-04 1.11865951e-03
      1.06716657e-03 -2.47829303e-06 0. 5.14104395e-05 -2.65718154e-05
      7.30452484e-06 1.78464790e-04 6.54498144e-05 8.30212448e-05
      8.72879809e-06 0.</_>
    <_>
      -2.33595765e-05 1.81321942e-04 2.65076291e-04 5.58913220e-04
      1.88834660e-04 -2.70268589e-04 -3.32383534e-05 2.11577481e-05
      -9.00826635e-05 9.80300174e-05 1.21009354e-04 1.22109859e-03
      -8.50784272e-05 2.87178293e-04 1.50310370e-04 -5.25996693e-05
      1.29763299e-04 2.60275236e-04 -2.76751280e-06 7.98565627e-04
      1.97840109e-03 7.13942572e-03 -6.29983959e-04 1.79643121e-06
      -9.92958376e-05 1.33369106e-03 -6.56939344e-03 -4.33816155e-03
      -6.94092689e-03 7.32445717e-03 -2.52844184e-03 -3.32383534e-05
      1.35527633e-04 -2.39831046e-03 -1.41711049e-02 -3.74500314e-03
      -4.15033987e-03 -5.67280501e-03 8.78097722e-04 -1.03402905e-04
      9.13072363e-05 -1.51561759e-03 -1.12803159e-02 -8.02088436e-03
      -1.00167759e-03 -4.94906958e-03 -3.02857556e-03 -9.50101530e-05
      -1.01951766e-03 -1.95932994e-03 -7.16315350e-03 9.07439180e-03
      3.45468125e-03 -9.69098322e-03 -4.80533065e-03 -1.16364121e-04
      -3.07193468e-03 2.06249766e-03 -6.50384091e-03 -9.35465971e-04
      7.88096432e-03 -5.23177721e-03 -3.36966361e-03 -1.98188500e-05
      -5.63126465e-04 7.91670231e-04 -8.02943669e-03 4.09563351e-03
      8.86342197e-04 -6.45975408e-04 -3.76998633e-03 -4.00301360e-05
      -2.48525408e-04 -3.61483032e-03 -4.89681074e-03 5.96154656e-04
      -2.37242272e-03 -6.05014444e-04 -2.01959140e-03 -1.98124326e-04
      -1.83003067e-04 -2.31816270e-03 4.61869058e-05 -2.84453062e-03
      -2.88094720e-03 3.32243764e-03 -3.43686342e-03 -6.66590058e-04
      -3.73753282e-04 -4.20676224e-04 1.17256877e-03 -6.37114688e-04
      8.44360795e-03 5.00690378e-03 -2.30264920e-03 -3.33196920e-04
      -4.76776855e-04 1.94858981e-03 1.14095882e-02 -1.79040560e-03
      7.96613656e-03 1.00588324e-02 5.57524094e-04 0. -6.87172287e-05
      6.98762306e-04 3.61062493e-03 7.96471536e-03 -2.67614680e-03
      5.71819162e-03 4.67329752e-04 0. 6.74018811e-05 -8.13357692e-05
      -3.23195779e-03 -2.58531352e-03 -2.35177670e-03 6.32229901e-04
      5.05569551e-05 0. -2.07434496e-04 4.48734645e-05 -1.74271860e-04
      -6.34986768e-03 4.75561275e-04 -2.40225709e-04 -1.70215702e-04 0.</_>
    <_>
      -5.30638732e-04 -6.25718909e-04 1.35877647e-03 1.84640824e-03
      2.56638392e-04 -1.71138774e-04 -1.20439543e-03 5.13570500e-04
      -2.50962190e-03 9.66855732e-05 -3.68177658e-03 -4.24397178e-03
      -2.41817979e-05 -4.71939892e-03 -1.46216888e-04 -1.33933005e-04
      2.21729133e-04 -9.38600802e-04 -9.61192418e-03 6.04885956e-03
      -5.93421003e-03 -9.19166673e-03 -4.59862221e-03 -2.03083968e-03
      -1.94017630e-04 3.69252358e-03 6.15902711e-03 -1.73731036e-02
      -1.76585242e-02 -1.16309877e-02 -1.50921131e-02 -4.69168706e-04
      3.25181376e-04 -1.40306278e-04 4.41407925e-03 -2.12149287e-04
      6.06138958e-03 9.33726318e-03 1.74370762e-02 -5.18258568e-03
      -1.32004541e-04 -2.84307892e-03 -9.14615951e-03 -3.58646642e-03
      -3.53540946e-03 -1.99687555e-02 -3.95886675e-02 2.10235897e-03
      6.20459556e-04 6.97051315e-03 -5.85763110e-03 5.47209384e-05
      3.00492290e-02 -3.82392993e-03 -2.46802699e-02 1.52203301e-02
      1.48059754e-03 3.06272712e-02 -3.10718324e-02 -3.94193362e-03
      -1.61595475e-02 1.54204890e-02 -3.19594308e-03 3.36303841e-03
      -3.63936159e-03 1.92334410e-02 -7.60826794e-03 -2.46936828e-03
      3.48609313e-03 1.79940357e-03 -7.27927720e-04 2.37635308e-04
      -1.17193104e-03 -2.49668793e-03 1.04230980e-03 1.03392750e-02
      7.88395572e-03 -2.13775914e-02 -5.19441033e-04 5.74737845e-04
      -1.21725188e-03 5.73172281e-03 -2.71909349e-02 -5.77570172e-03
      -1.13420850e-02 -1.38243483e-02 -7.83550180e-03 5.38274122e-04
      -3.63073382e-03 1.65269654e-02 -7.82538764e-03 -1.22908401e-04
      5.98115753e-03 1.91083215e-02 -1.46339396e-02 -2.51713849e-04
      2.76558567e-04 1.86856668e-02 1.06399572e-02 6.80051604e-03
      7.79444817e-03 -1.45985587e-02 -2.93951761e-03 4.89349128e-04
      -4.80831310e-04 7.14130793e-03 6.45642960e-03 -1.38238715e-02
      -1.39764464e-02 1.63290352e-02 1.96357211e-03 -4.26902297e-05
      -8.17675435e-04 1.50924301e-04 -1.81884842e-03 -7.78750563e-03
      -1.82330981e-02 6.02448219e-03 -1.05345331e-03 0. -5.02556853e-04
      -9.60164238e-04 1.14941533e-04 -2.56743329e-03 -1.71014306e-03
      -9.80831450e-04 -1.77882309e-03 -4.89249869e-05</_>
    <_>
      -2.47325777e-04 9.50389585e-05 1.70518149e-04 1.14963761e-04
      -1.00501391e-04 -1.72176933e-05 6.05243599e-07 7.25536884e-05
      1.54413938e-04 8.25121315e-05 3.11486277e-04 2.63743830e-04
      5.03759424e-04 3.55904340e-04 -1.34051140e-06 -1.17614845e-05
      8.98998551e-05 4.62273543e-04 5.47299394e-03 -8.09924910e-04
      6.16748491e-03 3.12507479e-03 7.52802152e-05 5.37147062e-05
      1.89185404e-04 1.71943509e-03 9.88905225e-03 1.85628398e-03
      -1.71632785e-03 1.39545707e-03 2.71533336e-03 -5.02542680e-05
      1.93685162e-04 1.85508019e-04 1.32387271e-03 -5.91301639e-03
      -7.00530550e-03 7.68716054e-05 5.02393302e-03 -2.10491839e-04
      1.31808541e-04 2.08525176e-04 -6.83142990e-03 -1.27165793e-02
      2.21250360e-04 -7.26968341e-04 -1.49786903e-03 -5.57130610e-04
      -2.30499107e-04 6.71207032e-04 -3.34690703e-04 -5.26187290e-03
      -6.65949471e-03 -5.43659739e-03 -1.73812592e-03 -2.41291127e-04
      -2.24453863e-04 4.20513237e-03 -3.88661725e-03 1.70098932e-03
      5.41354704e-04 -1.17919948e-02 1.77424954e-04 -1.64964040e-05
      -4.93276129e-05 2.38522235e-03 -9.40486323e-03 -1.91698666e-04
      -1.53329282e-03 -8.38278141e-03 -5.28317541e-05 -1.25763008e-05
      -9.62274935e-05 6.55954063e-04 -4.37533949e-03 6.74310885e-03
      1.33653358e-03 -5.43466816e-03 1.25148872e-04 -1.25763008e-05
      -2.12579995e-04 4.52751556e-04 -2.86223739e-03 8.68416671e-03
      7.60436337e-03 -3.22092464e-03 -4.86110839e-05 7.07749950e-06
      3.77228901e-07 5.60928718e-04 -8.49619391e-04 6.13579340e-03
      7.68840360e-03 4.63701459e-03 1.68749085e-03 0. -3.19386595e-06
      -2.76690844e-04 2.95615662e-03 -6.47180597e-04 8.50764289e-03
      3.22271418e-03 1.07826455e-03 -3.22301021e-05 -1.11634727e-04
      -1.14389500e-02 2.22184113e-03 5.93912415e-03 -8.84852605e-04
      2.35073478e-03 -7.53668253e-04 0. 4.31264707e-05 -5.96608035e-03
      5.31380391e-03 -4.02932148e-03 -1.32437004e-03 4.03715676e-04
      -3.35396035e-04 0. 4.09108579e-05 -4.13867005e-04 1.03485584e-03
      -1.49668206e-03 -9.13759810e-04 -6.83885082e-05 -2.17383094e-05 0.</_>
    <_>
      1.02437938e-04 -1.84024448e-05 -9.52412898e-04 -1.40134140e-03
      1.23668963e-03 -1.10159302e-03 -3.35659424e-04 8.41266319e-06
      1.15329385e-04 -3.70774127e-04 -1.06313825e-03 -3.94826708e-03
      -8.70953966e-03 -4.45234776e-03 2.05994118e-03 -7.42323682e-05
      -1.43313766e-04 -1.57131767e-03 -1.17830690e-02 1.04412185e-02
      -4.59935516e-03 7.32902158e-03 5.85303642e-03 3.99324745e-05
      -1.26945321e-03 -1.75722726e-02 7.90532120e-03 -7.64490198e-03
      -5.40974026e-04 -1.45735564e-02 2.66428222e-03 -3.96880525e-04
      -2.77115474e-03 -1.07587166e-02 -5.66055533e-03 6.70943968e-03
      -7.82330241e-03 1.68249547e-03 1.78795436e-03 -3.90501256e-04
      -3.07125272e-03 2.77376804e-03 -3.26918648e-03 -3.17228516e-03
      -1.23751368e-02 1.67803131e-02 -7.09777756e-04 -4.34806861e-04
      -3.69314832e-04 2.50044465e-03 -2.78804544e-03 -1.86438132e-02
      -5.18744905e-03 -2.37601120e-02 -1.55574380e-04 2.64671631e-04
      -6.99886819e-04 3.84983432e-04 4.87591885e-03 -4.59966063e-03
      -1.40209096e-02 -1.26160367e-03 1.85008044e-03 1.11790013e-03
      3.81627877e-04 1.48655362e-02 -1.39824650e-03 -8.89594387e-03
      -2.55706487e-03 -3.37218167e-03 2.04494852e-03 5.52815945e-05
      3.55843746e-04 2.19387840e-02 1.17171658e-02 1.12646483e-02
      6.52417308e-03 2.57833186e-03 5.40992571e-03 3.33428639e-03
      -4.57831705e-03 -6.98443735e-03 5.28274057e-03 2.11914182e-02
      -6.63229404e-03 -9.16594360e-03 1.35496194e-02 4.93597006e-03
      1.13011589e-02 -1.06482133e-02 -3.16199544e-03 2.27344912e-02
      -7.29335705e-03 1.29994303e-02 1.59609737e-03 -6.83477207e-04
      1.33128269e-02 -1.08396565e-03 -2.59499485e-03 1.52348978e-02
      -3.45862028e-03 4.87084407e-03 8.32406152e-03 2.77562765e-04
      -3.25682777e-04 -1.02091050e-02 1.57196205e-02 -7.72535009e-03
      -7.80610368e-03 8.27067811e-03 1.47814713e-02 6.27676741e-07
      -8.35945481e-04 -8.04058462e-03 -9.37877223e-03 -7.02734047e-04
      -6.54110452e-03 6.68261840e-04 6.47655455e-03 1.56919185e-07
      1.16466684e-03 7.06062303e-04 1.01649959e-03 -2.68859876e-04
      -7.25204125e-04 -8.24471819e-04 9.29996095e-05 1.56919185e-07</_>
    <_>
      3.38308892e-04 -2.51386315e-04 -8.69320647e-05 1.85298937e-04
      -1.08440488e-03 -3.40637576e-04 -5.34324645e-05 -1.31423963e-04
      -1.71605687e-04 -4.24505670e-05 2.95270234e-04 1.39610423e-03
      -2.09351908e-03 -1.58894213e-03 -1.49088126e-04 -7.86054370e-05
      -6.97202559e-05 1.15068724e-04 -2.68857530e-03 4.08655079e-03
      7.79605983e-03 -2.02057650e-04 -1.32453977e-04 -9.02029860e-05
      -4.23135585e-04 6.35038363e-04 -3.62162828e-03 1.10907271e-03
      1.55238167e-03 -1.95815097e-04 -1.97621086e-03 8.36536929e-05
      4.30630425e-05 3.96584393e-03 4.45001898e-03 7.52255647e-03
      5.98851638e-03 3.10283690e-03 -3.87246883e-03 -1.26023660e-04
      -2.95351434e-04 -1.81970606e-03 -2.44058785e-03 5.44455927e-03
      7.30057713e-04 5.02287177e-03 5.63171087e-03 3.94337403e-04
      -9.07534210e-04 -5.64010581e-03 -1.09490417e-02 -1.22365225e-02
      -8.38734210e-03 7.33796391e-04 -5.90085401e-04 4.47415485e-04
      6.89485285e-04 8.56331142e-04 -8.57135747e-03 -7.32808234e-03
      3.28259799e-03 -7.09117996e-03 -3.66268167e-03 3.08521907e-03
      2.43336847e-03 -3.39027843e-03 -2.17576325e-03 4.04988695e-03
      -2.66360468e-03 -2.44795997e-03 2.62732967e-03 1.55732324e-02
      1.59290573e-03 3.29038105e-03 -5.97867742e-03 4.43006167e-03
      -1.09276653e-03 -6.57703567e-05 -2.77269189e-03 1.73651464e-02
      5.12601458e-04 4.87881200e-03 1.58442650e-04 -4.56317700e-03
      1.56637514e-03 1.50435395e-03 8.89890082e-03 6.70038303e-03
      4.18716867e-04 -8.68290546e-04 9.25854035e-03 6.10543555e-03
      -4.36765607e-03 2.19273404e-03 3.10798222e-03 1.57719757e-03
      2.97449995e-04 1.31848734e-03 3.97227332e-03 6.49554795e-03
      -6.30170573e-04 -4.58854018e-03 1.62512087e-03 6.02202606e-04
      -1.56399128e-05 -4.74979934e-05 -3.68196372e-04 -4.16176300e-03
      -4.27673524e-03 6.72322558e-03 1.34603935e-03 0. -1.71793057e-04
      -7.34329733e-05 -2.11958727e-03 -3.74286505e-03 -2.98735243e-03
      1.24621838e-02 3.23614455e-04 0. 6.27530462e-05 -3.46651141e-05
      -2.76227714e-04 -4.10439447e-04 -6.28434937e-04 1.74038601e-03
      -7.23556786e-06 0.</_>
    <_>
      5.78860112e-04 2.95055997e-05 -1.24818078e-04 7.69992243e-04
      1.88497055e-04 -1.98998532e-04 -3.04420100e-04 -2.89782707e-04
      -1.93931410e-04 1.38654359e-04 -3.28744791e-04 2.06147367e-03
      9.28375695e-04 -1.94439141e-03 -1.67002482e-03 -1.88343765e-04
      2.30885766e-04 -4.45451078e-05 6.49633061e-04 4.76392265e-03
      6.87789265e-03 2.50365306e-03 -3.75196047e-04 -7.57812348e-04
      4.79665323e-05 -1.97929985e-04 4.78206435e-03 -1.09456843e-02
      1.95167377e-03 -1.57248741e-03 -7.81359151e-03 -4.19741636e-03
      7.24142155e-05 -2.36505456e-03 6.05258101e-04 -1.06017233e-03
      -1.38255977e-03 4.10229713e-03 -8.59182980e-03 -1.18226632e-02
      -1.75875757e-04 -8.40278517e-04 1.54922088e-03 -2.74833106e-03
      1.06106314e-03 2.30182632e-04 -4.28085122e-03 -1.02573615e-02
      2.44170515e-04 2.92946002e-04 -1.32592274e-02 -1.07667157e-02
      -1.03559773e-02 6.53707655e-03 1.14891957e-02 -3.02116759e-03
      1.60737056e-03 3.21124971e-04 -7.99945928e-03 -4.93835565e-03
      7.12664332e-04 5.32204635e-04 4.22831421e-04 2.62998947e-04
      1.48434797e-03 -6.26563269e-05 7.12194107e-03 -4.37029544e-03
      8.28022044e-03 -1.05719306e-02 -6.11359428e-04 9.98995826e-03
      1.44214649e-03 5.83813293e-03 1.37190567e-03 7.86606316e-03
      8.71543743e-05 -1.23067561e-03 4.07594256e-03 1.44470073e-02
      -1.22079777e-03 2.17490480e-03 3.40541083e-05 1.30772442e-02
      -1.70989148e-03 -5.43960789e-03 8.74699932e-03 5.13249123e-03
      -4.37850133e-03 -3.77290929e-03 -5.17209584e-04 7.37888180e-03
      2.13771826e-03 7.42631126e-03 5.59375249e-03 -2.79364595e-03
      -1.72825123e-04 3.92219005e-03 -1.56688190e-03 4.90116654e-03
      2.61911005e-03 -4.64160228e-04 -7.73237599e-03 -1.96653511e-03
      1.20106342e-04 6.74183341e-03 5.19199111e-03 -6.83865976e-04
      -3.17190588e-03 6.10112026e-03 4.56951931e-03 -1.66263453e-05
      -9.94330694e-05 1.61621557e-03 -4.20277822e-04 -4.32254339e-04
      -7.83623662e-03 1.23407431e-02 5.23034297e-03 -2.18068612e-06
      1.32513524e-04 1.20055098e-04 3.32291267e-04 -4.09227272e-04
      -1.02915557e-03 9.38069774e-04 -2.27356548e-04 -5.52620259e-05</_>
    <_>
      1.34841583e-04 -5.06233118e-05 1.99181988e-04 4.70924744e-04
      5.20326488e-04 -3.76076758e-04 -7.70786501e-05 -2.35340412e-04
      -9.25265631e-05 2.91120086e-04 8.60935019e-04 -2.66486659e-05
      -3.36524006e-03 -5.45280706e-03 -2.17129433e-04 -2.73082660e-05
      1.75173900e-05 -1.27283786e-03 9.28084410e-05 3.63430404e-03
      4.29260125e-03 -3.94907687e-03 -3.90291796e-03 -7.28875224e-04
      1.16082352e-04 -3.22939665e-03 -2.09568490e-04 4.99076443e-03
      1.84215570e-03 -1.38116267e-03 -2.72616791e-03 -6.69773249e-03
      2.89008458e-04 6.11202559e-04 9.10957064e-03 3.00345663e-03
      1.51032733e-03 1.22220842e-02 -1.19874729e-02 -5.25873667e-03
      3.43349733e-04 -7.12825917e-04 3.42272036e-03 1.64745713e-03
      4.84979665e-03 8.35736748e-03 6.33827364e-03 -3.22262320e-04
      4.81194525e-04 5.87779447e-04 -1.41509203e-02 -2.99775926e-03
      3.86858196e-03 8.26355256e-03 -2.80050817e-03 -8.99730658e-04
      1.65569433e-03 3.32242041e-03 -1.19393021e-02 -7.56370137e-03
      -9.41011496e-03 -1.26427098e-03 -1.41478227e-02 -1.42221001e-03
      2.36003962e-03 -3.43103055e-03 2.79978989e-03 1.29464047e-03
      3.35036614e-03 -2.31401226e-03 -8.30177404e-03 1.74384576e-03
      1.27716851e-03 1.95759488e-03 2.26201583e-03 9.29716800e-04
      2.12048111e-03 1.96640729e-03 -2.73842853e-03 7.03236973e-03
      1.48015853e-04 1.26228128e-02 -8.35917052e-03 -5.27829072e-03
      -6.83770690e-04 8.24925140e-04 7.99397472e-03 5.20886155e-03
      4.19939279e-05 1.20564783e-02 6.37681689e-03 2.67626904e-03
      -4.81463457e-03 3.41748120e-04 3.02156922e-03 1.24625431e-03
      -3.76107288e-04 8.37490149e-03 -5.19201998e-03 -2.13451008e-03
      -4.76614945e-03 -1.74052571e-03 2.90987780e-03 1.66694503e-04
      -1.91097788e-04 3.56174610e-03 7.25306803e-03 3.27928434e-03
      6.48003712e-04 1.38662534e-03 3.90596659e-04 0. -2.48007273e-04
      1.06042414e-03 5.25276922e-03 1.88007334e-03 1.14563387e-03
      5.82967931e-03 0. 0. 1.12236463e-04 4.03476093e-04 -5.56292536e-04
      1.11321016e-04 -3.05547088e-04 5.78562904e-04 1.99149246e-04 0.</_>
    <_>
      2.35259518e-04 6.43810199e-04 -7.34865171e-05 2.73173966e-04
      1.36774394e-03 6.14705845e-04 -7.62710915e-05 9.32178154e-05
      -6.83764520e-05 1.84473174e-04 -1.19384487e-04 2.89760577e-03
      5.80721069e-03 7.04602804e-04 -7.52449487e-05 6.28542257e-05
      -7.65254372e-04 8.95969046e-04 -1.39445509e-03 2.06062454e-03
      3.99530120e-03 5.00952685e-03 2.58993986e-03 9.77211384e-05
      3.95428760e-05 4.22494777e-04 -5.09079266e-03 2.11500053e-04
      -8.37889966e-03 1.17695360e-02 4.42299899e-03 4.13397502e-04
      -1.79618844e-04 -1.44034652e-02 2.71127047e-03 -1.60308531e-03
      1.67433172e-03 -8.04779027e-03 -1.89970317e-03 8.71356824e-05
      -3.90191399e-03 8.02445412e-03 -7.35558430e-03 -7.84111326e-04
      -7.23680062e-03 -1.26434013e-03 -2.46266485e-03 1.50912337e-03
      -6.29638648e-03 2.43293028e-03 -6.76248781e-03 -8.70576687e-03
      -1.04565974e-02 -6.77319337e-03 -1.08346557e-02 2.91929115e-03
      -2.26105261e-03 -1.84688438e-03 1.32234197e-03 9.19688120e-03
      -7.94800371e-03 3.52206710e-03 7.79781840e-04 3.27534415e-03
      -5.35220432e-04 -6.27407851e-03 6.02885755e-03 -9.61822749e-04
      -1.66649304e-04 3.93215509e-04 4.17090487e-03 1.39512960e-03
      -3.00579064e-04 6.83449721e-03 -7.68868206e-03 3.67159210e-03
      -3.34757939e-03 8.42629815e-04 5.94686111e-03 1.26792933e-03
      -5.75160317e-04 4.93026944e-03 1.32534998e-02 1.53229674e-02
      -1.19919227e-02 6.47698902e-03 6.55772351e-03 -3.67611437e-03
      -1.25841252e-04 3.00033856e-03 4.30511864e-04 4.24236665e-03
      7.08458200e-03 -4.43797745e-03 1.63482793e-03 5.12759725e-04
      -3.71670583e-04 4.35530441e-03 6.15294208e-04 1.59561373e-02
      -3.97724507e-04 9.59303416e-03 7.41341757e-03 1.72725224e-04
      3.08935036e-04 -1.76375301e-03 6.35142624e-03 -2.96023837e-03
      3.46964924e-04 1.61124449e-02 2.27733515e-03 2.95251957e-05
      1.16689946e-04 -3.53749422e-03 -1.72817111e-02 -1.41314063e-02
      -5.28573873e-04 9.41600811e-05 -1.94945431e-03 -3.19472420e-05
      3.75414063e-04 -4.84745688e-04 -5.03094029e-03 -2.06090300e-03
      -3.12410644e-03 -3.87129071e-03 -1.62274158e-03 -1.22829706e-05</_>
    <_>
      -3.54702759e-04 -1.13313936e-03 -2.45731761e-04 -6.03430846e-04
      -1.96527690e-04 1.01664383e-03 -4.62853524e-04 -6.74744777e-04
      -4.32129134e-04 1.02492799e-04 -2.30117911e-03 -3.31814564e-03
      6.04329957e-03 1.97011535e-03 -2.79650820e-04 1.06010225e-03
      1.40586414e-03 7.46420817e-04 -1.54034933e-03 9.63769015e-03
      -6.45539351e-03 -1.39042409e-02 -1.44261466e-02 -1.51853042e-03
      1.63583696e-04 5.63912326e-03 -3.37563315e-03 1.91585696e-03
      3.46783106e-03 4.06049518e-03 -5.51662454e-03 -4.99389693e-03
      1.39278930e-03 6.95330231e-03 -3.21207073e-04 5.40123368e-03
      -5.40144416e-03 -1.22815995e-02 -3.72439972e-03 -5.44398371e-03
      -1.71993859e-03 -1.90194976e-03 2.13266909e-03 -1.73850283e-02
      1.21791689e-02 8.89392663e-03 1.55106559e-03 -6.91757631e-03
      -7.91837374e-05 -6.18211133e-03 -7.57936807e-03 -8.86193477e-03
      -2.12970413e-02 1.09667405e-02 -1.50083564e-02 6.30236370e-03
      -8.03420480e-05 -4.80936840e-03 -2.00952757e-02 -7.67542515e-03
      -6.51945965e-03 -3.05533614e-02 -9.95786767e-03 8.70855339e-03
      -6.70441717e-04 1.78100560e-02 -1.07041560e-02 -1.69965085e-02
      -1.82791241e-02 2.36804644e-03 -2.41463725e-03 1.95528530e-02
      4.35179751e-03 2.73444820e-02 1.55233713e-02 6.62885560e-03
      -6.12402381e-03 1.16041815e-02 3.34125920e-03 3.59127857e-02
      5.09901065e-03 2.87355669e-02 -1.29205937e-05 1.48676671e-02
      1.82535984e-02 6.38583535e-03 6.63640862e-03 2.45330315e-02
      4.68964968e-03 5.81827480e-03 2.62433337e-03 1.58281960e-02
      1.13035766e-02 -4.30994574e-03 3.30463634e-04 4.56360634e-03
      2.24026619e-03 -1.60846428e-03 1.56458244e-02 1.22322515e-03
      1.38024217e-03 1.08195469e-02 -1.52401067e-03 -6.34714903e-04
      1.21560523e-04 1.12181297e-02 2.57705548e-03 -8.63929465e-03
      6.96971221e-03 4.03610291e-03 8.09991732e-03 -2.84791488e-04
      5.79778280e-04 6.76440215e-03 -1.17936200e-02 -8.05679336e-03
      -3.97496251e-03 1.04145436e-02 7.52103003e-03 2.11211682e-05
      1.82890275e-03 1.10746955e-03 -2.00448325e-04 -7.74834631e-03
      -1.46086665e-03 3.73035902e-03 5.14627754e-05 2.75765284e-04</_>
    <_>
      1.26813495e-04 2.76187056e-04 -2.69445125e-04 -5.44407267e-05
      5.36634579e-05 -3.58594552e-04 -8.64143876e-05 -2.88452895e-07
      1.36292496e-04 5.59004766e-05 1.97998612e-04 8.21754220e-04
      2.56456342e-03 9.42293671e-04 1.85685887e-04 2.57711654e-05
      -3.51726230e-05 -5.19045461e-05 5.19924448e-04 5.51642850e-03
      5.62363211e-03 4.85508190e-03 1.40976370e-03 3.72994691e-05
      -1.90677849e-04 6.32334850e-04 1.59374671e-03 2.60919635e-03
      -9.94736096e-04 1.44683188e-04 3.76159349e-03 1.08919477e-04
      1.87414422e-04 3.49161751e-03 1.95969318e-04 -6.05604844e-03
      1.70699204e-03 4.99389134e-04 2.44550407e-03 9.19760278e-05
      3.71191004e-06 1.99497933e-03 -3.47459945e-03 4.69174702e-05
      3.51671799e-04 2.53772410e-03 -1.49547166e-04 1.02982733e-04
      -2.10263261e-05 -6.87044766e-03 -3.80377914e-03 -1.25942137e-02
      1.42179546e-04 7.40331889e-04 -3.82607197e-03 3.65669548e-04
      -1.03494234e-03 -8.72142520e-03 -2.34964723e-03 -6.83628954e-03
      -4.34604706e-03 -3.26341111e-03 2.62100389e-06 2.38894974e-03
      -1.28390023e-03 -3.15681356e-03 -4.30491578e-04 1.67224940e-03
      -2.16465443e-03 -3.11819767e-03 8.17160774e-03 5.80555014e-03
      -4.20974829e-04 3.00395791e-03 -3.23442114e-03 5.11017907e-03
      -1.09675864e-03 1.19819096e-03 8.48620199e-03 8.18009861e-03
      -8.22078437e-05 2.14055320e-03 5.07144898e-04 3.48582678e-03
      2.63285427e-03 7.11889472e-04 1.26088178e-02 4.49966779e-03
      9.39153178e-05 1.07228069e-03 1.47277454e-03 4.57534660e-03
      5.23587968e-03 -2.48649623e-03 5.46459155e-03 7.12171837e-04
      2.83073256e-04 2.92653218e-03 -6.86117855e-04 8.20088666e-03
      2.02299934e-03 8.41973757e-04 2.22959020e-03 1.35006063e-04
      -9.26177090e-05 -3.23819113e-05 -1.40636752e-03 5.36312524e-04
      -2.60058232e-03 5.03779389e-03 -1.40634202e-03 -1.86018278e-05
      -4.00182500e-07 -1.38864751e-04 -8.61925539e-03 -3.52067803e-03
      -2.61115981e-03 6.95192441e-03 -3.02149029e-03 -4.21757468e-05
      -1.21455232e-04 -4.93029329e-05 -3.67564312e-03 -1.18108012e-03
      -6.40823215e-04 1.27330446e-03 -1.58315722e-03 -5.96237624e-05</_>
    <_>
      -2.24671076e-05 -3.61711027e-05 3.12478587e-05 1.02420026e-05
      -1.07502165e-04 -1.93475698e-05 -3.08177077e-05 2.94658967e-05
      4.04422062e-05 6.39701975e-05 -5.20513931e-05 -4.10782610e-04
      6.98201125e-04 -7.14715643e-05 -5.05839489e-05 2.77800027e-05
      2.15861641e-04 -1.29975626e-04 -9.13134078e-04 5.89280215e-04
      4.71902639e-03 -3.35520890e-05 -9.62975246e-05 -1.29355312e-05
      6.25078392e-05 5.31719648e-04 8.86116293e-04 6.11896487e-03
      9.77568328e-03 1.95633783e-03 1.76585501e-03 2.06449040e-05
      5.41010813e-04 4.35096910e-03 -6.44317421e-04 5.87098347e-03
      -4.51222404e-05 1.22967234e-03 4.78588976e-03 1.09679597e-04
      5.31824306e-04 2.29317811e-03 -2.67576426e-03 8.79182189e-04
      3.26081156e-03 1.14117889e-03 1.38074544e-03 2.71233112e-05
      9.30535316e-05 -4.10309806e-03 -6.73460076e-03 -2.93178018e-03
      -3.28437588e-03 -8.17077758e-04 -6.30387745e-04 3.94578747e-05
      -1.77276772e-04 -5.40412171e-03 -5.74905938e-03 -6.54656859e-03
      3.66497482e-03 -3.22411791e-03 -1.14491617e-03 2.12327595e-05
      -2.09041013e-04 -2.57041492e-03 -2.43621413e-03 -1.44104543e-03
      3.84109910e-04 1.51181142e-04 -6.97300187e-04 2.48158231e-05
      -2.33001047e-04 3.31950636e-04 -3.42084491e-03 -8.46939336e-04
      -2.77564814e-03 -1.18911406e-03 2.23617163e-03 -5.97520557e-06
      2.54194892e-04 4.28590644e-03 -5.19703142e-04 -2.95008766e-03
      -4.94909286e-03 2.69004330e-03 5.04365237e-03 -3.10021569e-05
      -1.68135034e-06 4.38565761e-03 3.91975837e-03 -1.03048573e-03
      -1.05251395e-03 6.89674728e-03 4.82166186e-03 4.12402915e-05
      8.48686523e-06 1.02483225e-03 6.83326740e-03 1.29919359e-03
      6.52639708e-03 1.81434536e-03 2.35783425e-03 3.53916803e-05
      1.36857430e-04 6.55806725e-05 4.46387753e-03 7.47755403e-03
      4.61279182e-04 2.26949039e-03 1.94782263e-03 4.66635029e-05
      1.79659590e-04 1.07332104e-04 2.87298090e-03 2.90032383e-03
      -3.93327558e-03 3.72513919e-03 2.01714225e-03 4.18042546e-05
      6.50004149e-05 1.79592244e-04 3.27174785e-04 -3.51777737e-04
      -1.11034664e-03 2.11181538e-03 2.72951525e-04 2.26081775e-05</_>
    <_>
      8.34376924e-03 1.04859136e-02 1.28181577e-02 1.79043449e-02
      -1.66551936e-02 -9.07380041e-03 3.39495461e-03 -1.65154564e-03
      6.95178332e-03 1.97638944e-02 2.37927381e-02 -2.96895728e-02
      1.78731810e-02 -1.12644918e-02 -1.36855990e-02 -7.80186150e-04
      1.30102485e-02 6.86397683e-03 -1.81516726e-02 1.16079319e-02
      -5.75297885e-03 -3.29721115e-05 -8.68186075e-03 -2.03338806e-02
      1.45733049e-02 2.09978595e-02 1.21471826e-02 -2.38227309e-03
      6.21494430e-04 2.12539430e-03 3.87306279e-03 -5.60923927e-02
      8.46578833e-03 1.63132139e-02 -3.24352714e-03 -1.40552945e-03
      6.16013829e-04 2.49546545e-04 -1.02404552e-02 -4.64624986e-02
      2.02305820e-02 5.98996831e-03 1.06482059e-02 -9.22213017e-04
      1.18354242e-02 1.77445856e-03 2.15158565e-03 -7.23217428e-02
      7.36433873e-03 8.62635858e-03 -2.18930338e-02 -2.59711035e-03
      6.95116352e-04 1.94275528e-02 3.72802583e-03 -2.94616297e-02
      3.21677397e-03 -2.22618598e-02 1.01144984e-02 2.25083044e-04
      9.86608583e-03 -2.06123409e-03 -9.93114058e-03 -2.83593824e-03
      1.88510348e-05 -1.00951968e-02 1.46059800e-04 -8.82237870e-03
      3.80149577e-03 1.77528732e-03 4.94612288e-03 1.47449988e-04
      -1.36539917e-02 9.07098129e-03 -1.34351477e-02 2.10476611e-02
      2.22338736e-03 -8.32723267e-03 -2.21704990e-02 -4.57054796e-03
      7.52964430e-03 -6.58855448e-03 4.31793369e-03 -1.77329686e-02
      -9.17130616e-03 4.22546035e-03 6.37497194e-03 2.95907143e-03
      -1.58835556e-02 5.75493136e-03 -2.72453041e-03 5.18563844e-04
      6.60604285e-03 2.01532687e-03 8.70160013e-03 -6.07613067e-04
      1.09364437e-02 -2.32798653e-03 -1.20438228e-03 -9.96042322e-03
      -2.84189591e-03 3.55751696e-03 -2.24730875e-02 -1.14271482e-02
      1.58247929e-02 1.29629355e-02 -3.09289456e-03 4.04274743e-03
      -4.91139526e-03 -1.05091976e-02 3.79471071e-02 2.70028133e-03
      5.80971362e-03 -9.17286240e-03 -4.75450419e-03 -1.52647812e-02
      -1.76275335e-02 4.69013304e-03 -1.48811303e-02 2.26255693e-03
      -2.57978821e-03 -4.93874820e-03 1.11370832e-02 3.74552123e-02
      7.46742357e-03 9.31069429e-04 -9.22561623e-04 -1.20920292e-03</_>
    <_>
      7.71021314e-06 7.14101043e-06 5.03821029e-05 -4.00024554e-04
      -2.19617359e-04 6.42769228e-05 -2.50612302e-05 -1.97927620e-05
      -3.67530338e-05 4.72376705e-05 -2.24849413e-04 -2.10984447e-03
      1.82533651e-04 -6.57166311e-05 -2.27627796e-04 3.58979969e-06
      1.03614155e-04 -2.47664757e-05 -1.00480532e-03 4.32981848e-04
      1.11192057e-03 -2.27303570e-03 -3.20903887e-03 -5.49024981e-06
      1.59305040e-04 2.95014866e-03 1.26355689e-03 4.46918886e-03
      1.68753194e-03 -3.80717072e-04 -2.22130958e-03 4.91244055e-06
      8.35150189e-04 4.84714983e-03 1.65956328e-03 5.14226675e-04
      1.58494012e-03 5.13266213e-03 -3.12597927e-04 1.55522248e-05
      2.35424173e-04 8.56221071e-04 -1.24136009e-03 -2.79147201e-03
      2.49773404e-03 3.96548165e-03 -4.71307867e-04 -4.50578482e-05
      4.36555747e-05 -1.06862026e-04 -6.49681024e-05 1.30232307e-03
      1.57817022e-03 4.02775872e-03 -2.14886107e-03 -9.89150649e-05
      4.56471316e-05 1.29955646e-04 -1.23011949e-03 -3.00659123e-03
      2.06410838e-03 7.63920019e-04 -3.92884389e-03 -1.62680699e-05
      -1.30959059e-04 -7.62468902e-04 -3.99317360e-03 -1.70988322e-04
      2.13834131e-03 -1.07888505e-03 -3.82669107e-03 -9.25899731e-05
      -3.66243185e-05 -1.81946030e-03 -6.28010137e-03 -3.33213736e-03
      1.58399367e-03 -9.81379184e-04 3.69913643e-04 -2.43439164e-04
      2.83176305e-05 2.59884720e-04 -2.65277456e-03 -5.72268385e-03
      -3.28579056e-03 2.09750724e-03 2.28319434e-03 -1.27552892e-04
      1.61514363e-05 1.13602180e-03 1.06548378e-03 -1.77832728e-03
      2.53547262e-03 3.44221899e-03 8.48379801e-04 9.43135728e-06
      -8.86609487e-05 9.40656697e-04 6.82430400e-04 -1.65087229e-03
      -1.21846516e-03 7.58204900e-04 1.16972241e-03 5.95221100e-05
      2.50506797e-04 3.21547128e-03 2.77229655e-03 8.11624713e-03
      1.32823223e-03 2.95328512e-03 7.71242485e-04 1.01361247e-05
      1.88596823e-04 1.48439838e-03 1.26228761e-03 3.86521663e-03
      1.61624770e-03 1.67372846e-03 5.45962423e-04 1.01361247e-05
      -5.81777131e-05 1.35152895e-05 -3.00922602e-05 4.21160330e-05
      1.34176560e-04 3.70619586e-04 6.63475294e-05 5.06806236e-06</_>
    <_>
      2.93507997e-04 6.28522655e-04 2.80569308e-04 -6.93562208e-04
      1.10133798e-04 -1.41091167e-03 2.44621569e-05 5.51282938e-05
      1.77986280e-04 2.60271248e-04 2.19316542e-04 2.01125466e-03
      9.95883951e-04 1.47911982e-04 2.12823434e-04 -2.20283326e-07
      2.39000045e-04 6.52848485e-06 -2.60412553e-03 -2.66902323e-04
      1.24472221e-02 6.85672741e-03 1.89770741e-04 9.79118267e-05
      2.16533124e-04 8.34444724e-03 -9.80237592e-03 -2.83214613e-03
      -2.75935559e-03 4.24164021e-03 -1.07598018e-04 1.20356315e-04
      2.44531175e-03 -1.06659019e-02 -9.02427547e-03 6.97493879e-03
      -1.08823143e-02 1.91197649e-03 4.89085307e-03 1.94282286e-04
      -5.10620826e-04 -3.23404511e-03 -4.33247164e-03 -1.34160193e-02
      9.79086384e-03 -3.56255076e-03 1.05152454e-03 1.89451705e-04
      -6.56413613e-04 -6.95231557e-03 -1.03982026e-02 -7.34299538e-04
      -1.12388795e-02 -7.77993258e-03 -3.52758868e-03 3.68749352e-05
      3.26312322e-04 -3.26109235e-04 8.31807673e-04 5.59959793e-03
      8.33983161e-03 8.47372599e-03 -6.84096664e-03 6.80607991e-05
      -2.90521741e-04 -4.94149700e-03 -1.27598802e-02 5.66525850e-03
      8.87312088e-03 -2.14925408e-03 -4.22002253e-04 -2.28221561e-05
      -8.98670987e-05 -7.72881135e-03 3.49724287e-04 -4.80440492e-03
      9.46769200e-04 -2.03255075e-03 6.25134958e-03 -4.95897373e-04
      2.98508094e-04 4.48190793e-03 1.23818750e-02 -4.66090860e-03
      -6.66655228e-03 4.66139102e-03 3.47011606e-03 -2.61991285e-03
      1.57280813e-03 1.96516346e-02 9.30855094e-05 -5.01936255e-03
      5.07379230e-03 7.70348776e-03 6.55885274e-03 -1.19225797e-03
      3.49086768e-04 1.19466344e-02 -2.05369177e-03 -7.64591154e-03
      1.29885953e-02 1.33361584e-02 1.00129824e-02 7.87141253e-05
      5.76912309e-04 2.30128458e-03 1.64510328e-02 1.26640713e-02
      6.64844783e-03 1.05623435e-02 7.83208199e-03 1.01927617e-04
      3.61334096e-04 1.21296689e-04 1.00152204e-02 2.65404838e-03
      -3.20411194e-03 1.09942360e-02 5.65698277e-03 1.01927617e-04
      1.17478587e-04 8.11473175e-04 -2.61667673e-03 -1.07060438e-02
      -2.39011599e-03 4.13275883e-03 2.12209619e-04 5.09638085e-05</_>
    <_>
      3.62901855e-03 -4.61774925e-03 -4.52848244e-03 1.97004038e-03
      2.01668148e-03 -1.78748538e-04 -3.57622281e-03 -8.21293215e-04
      1.77184027e-03 8.47637467e-03 -1.05208112e-02 -2.18498278e-02
      1.18442886e-02 5.94776543e-03 1.04995689e-03 -1.19513331e-03
      1.08998623e-02 5.28081961e-04 -5.85162500e-03 1.85816977e-02
      1.16505465e-02 1.92062687e-02 -9.36631858e-03 -6.71662783e-05
      4.82099177e-03 2.34086532e-02 1.91031564e-02 -1.12579735e-02
      -8.12826585e-03 -6.78904261e-03 -3.55805345e-02 -7.47162104e-03
      3.73478793e-03 1.80201475e-02 2.03236230e-02 3.84319620e-03
      2.91548092e-02 1.57282241e-02 1.99674778e-02 -1.83780547e-02
      1.22470525e-03 3.99630442e-02 -2.29912978e-02 -2.57279887e-03
      -9.94581543e-03 -2.55816951e-02 -2.93328743e-02 -7.69938016e-03
      -6.61981583e-04 -2.87173986e-02 -1.04403980e-02 -1.98835321e-02
      1.36580030e-02 1.41742006e-02 -3.80806252e-02 -2.11747806e-03
      1.83207609e-04 -3.59479785e-02 2.94171367e-02 -1.57855600e-02
      5.30091813e-03 -1.14435591e-02 7.34042900e-04 -1.47490716e-03
      -5.23095841e-05 6.26798123e-02 8.72750301e-03 -1.23201031e-02
      -1.27262399e-02 2.10495777e-02 -7.30267679e-03 1.01611845e-03
      -4.87960735e-03 -9.08597931e-03 -1.89601257e-02 6.45670993e-03
      4.36671544e-03 -1.56533197e-02 -1.05553037e-02 -1.95040324e-04
      6.36127312e-04 1.72671899e-02 -1.44951567e-02 -5.49388416e-02
      -1.25657823e-02 3.17060016e-02 -3.25097777e-02 -1.14906905e-03
      2.42780871e-03 3.05301454e-02 -8.05016421e-03 2.46152617e-02
      1.81841534e-02 6.50560111e-03 1.32701723e-02 5.15300687e-03
      -9.48654895e-04 -1.86449196e-02 2.12923978e-02 -2.07074545e-02
      1.30707184e-02 -2.49516983e-02 9.06709768e-03 -4.23515099e-04
      2.70762048e-05 3.25570107e-02 -6.94986433e-03 1.17007196e-02
      -1.66398250e-02 2.81926133e-02 -4.02223691e-02 -2.66964034e-05
      3.10862018e-03 2.58648060e-02 -9.90103185e-03 3.23625840e-02
      -1.74762402e-02 -2.78996248e-02 -5.17051294e-03 -6.89489709e-04
      -1.57636951e-03 4.28815186e-03 3.88179603e-03 -8.44998937e-03
      1.18472492e-02 2.40339874e-03 2.70362315e-03 -1.95085187e-04</_>
    <_>
      1.84691206e-04 -2.54202110e-04 -1.65054551e-03 5.53419959e-05
      -3.36596509e-04 -4.90683131e-04 -3.87371285e-04 1.42710807e-04
      1.94628735e-03 1.72299519e-03 2.29142548e-04 1.27534652e-02
      1.37326429e-02 1.43844809e-03 -2.54738028e-04 5.78987412e-04
      1.29531568e-03 1.59451750e-03 6.48930436e-03 8.35643429e-03
      1.87362097e-02 1.65529072e-03 2.79937312e-03 1.62007273e-04
      -2.67164753e-04 2.63364939e-03 1.21584348e-02 -6.28865371e-03
      -3.59509094e-03 8.45990377e-04 1.24800447e-02 5.47799806e-04
      2.10821093e-03 1.72613785e-02 -8.25180579e-03 1.89243015e-02
      -2.72397627e-03 1.45235350e-02 9.77291167e-03 2.54599232e-04
      7.54831941e-04 2.11234540e-02 -1.00045633e-02 -2.65944898e-02
      3.44243832e-03 -9.99024417e-03 4.49262373e-03 9.94421542e-04
      4.74951725e-04 -1.04610771e-02 -2.96087451e-02 -1.45046203e-03
      -5.86726284e-03 -5.97775076e-03 -1.01991687e-02 8.92862328e-04
      1.67585851e-03 -1.62588600e-02 6.24949206e-03 -5.44366566e-03
      6.11291081e-03 -6.00620499e-03 -3.79768643e-03 3.66321387e-04
      9.19661950e-04 1.20263454e-02 -1.35432649e-02 3.20791174e-03
      1.04207115e-03 -6.00398611e-03 -6.35497272e-03 7.87688914e-05
      -1.50070910e-03 -2.25764010e-02 -5.29378373e-03 6.23981282e-03
      -8.18543427e-04 4.65099700e-03 8.45293235e-03 9.35990014e-04
      2.60817382e-04 1.20064467e-02 3.05527286e-03 1.29453689e-02
      -1.10929413e-02 2.02543307e-02 1.53538892e-02 5.56312967e-04
      8.42166017e-04 2.94574425e-02 -3.37430835e-03 -1.25089465e-02
      1.60491616e-02 6.86853658e-03 7.47772912e-03 8.37321393e-04
      -1.41745328e-03 -2.46937177e-03 -1.27184449e-03 -3.26373935e-04
      2.99357169e-04 2.21891841e-03 -1.04109198e-02 8.91080999e-05
      6.47212937e-03 1.08459927e-02 -1.15612429e-02 1.29855033e-02
      3.04607139e-03 1.15359726e-03 -1.67748071e-02 -5.30341873e-04
      4.57038637e-03 6.23452663e-03 2.49077119e-02 1.75147562e-03
      -9.87792667e-03 -1.15367223e-03 -3.16824368e-03 -1.25611085e-03
      -4.62112628e-04 8.19508394e-04 -8.18515196e-03 -6.78267935e-03
      -1.22644729e-03 3.65696801e-03 1.17014546e-03 -6.31797244e-04</_>
    <_>
      3.51024355e-04 3.51589668e-04 1.07690685e-04 3.31879157e-04
      -1.12366848e-04 -2.30056758e-04 -2.88181145e-05 -8.85761765e-05
      6.22161970e-05 2.59146818e-05 3.48868489e-04 2.41706977e-04
      1.94153850e-04 5.20507514e-04 1.39231223e-03 -6.35599717e-05
      4.39312098e-05 2.86912327e-05 4.25655860e-03 1.66198926e-03
      1.63828500e-03 3.79908062e-03 2.08511180e-03 -2.76128558e-04
      2.83458707e-04 -2.00242139e-05 4.17671585e-03 -3.84488120e-03
      -5.80138341e-03 -4.94728331e-03 -5.59563108e-04 -5.81910089e-03
      4.76423011e-04 9.67694505e-04 -4.72467626e-03 2.67552416e-04
      1.05171662e-03 -2.22159876e-03 -6.22034585e-03 -8.69322009e-03
      1.49695377e-04 2.12273910e-03 -1.45681819e-03 -6.82534883e-03
      -3.23702511e-03 -2.33382825e-03 -3.33234761e-03 -7.08502950e-03
      7.46539954e-05 1.76038360e-03 2.78050941e-03 -1.58369262e-03
      -2.22014007e-03 1.29940193e-02 -7.11748900e-04 -3.55916307e-03
      2.45794479e-04 1.43453421e-03 4.05519968e-03 -9.73706425e-04
      1.05123939e-02 9.55911726e-03 1.55659951e-03 -7.41741387e-04
      4.94090666e-04 -3.26491776e-03 -6.42166054e-03 -2.45360704e-03
      5.11201622e-04 1.21347501e-03 7.63551565e-03 -5.05182616e-05
      3.88937333e-05 -1.21369853e-03 8.11410137e-03 2.10276945e-03
      1.82753559e-02 3.53402714e-03 3.01349675e-03 -1.95216810e-04
      -2.25559299e-04 -1.36059942e-03 -3.64535348e-03 8.58700555e-03
      -6.31813309e-04 2.09355005e-03 -1.81204604e-03 -2.11201288e-04
      5.41535672e-04 -2.46793660e-03 -1.18235163e-02 -4.24866192e-03
      5.59845753e-03 -4.01775073e-03 -3.67104379e-03 -1.97051209e-04
      -5.90777199e-04 -3.95378005e-03 -5.01305703e-03 -9.11500957e-03
      -5.35317557e-03 1.56511040e-03 -2.67643412e-03 -1.88078484e-05
      -1.46747756e-04 8.08277691e-04 1.71205297e-03 -4.55392338e-03
      1.36079077e-04 -2.27593048e-03 1.17641466e-03 -1.88078484e-05
      2.97747283e-05 3.48063739e-04 3.28579242e-03 8.99818842e-04
      1.11108297e-03 -4.83740866e-03 1.99403366e-05 -1.88078484e-05
      2.69181351e-06 -1.15116542e-04 1.03635190e-03 -1.28661603e-04
      1.29996726e-04 -5.63596368e-05 -3.50362767e-04 -3.76156968e-05</_>
    <_>
      -2.22996125e-04 6.87149895e-06 -1.32523754e-04 -4.14864771e-04
      -3.58057441e-03 -5.72027406e-04 4.34263529e-05 4.57184578e-05
      -2.28475576e-04 -1.42894947e-04 -1.73517922e-03 -4.00082162e-03
      -5.57841687e-03 -5.20994933e-03 4.03925398e-04 -2.26240692e-04
      -2.18965124e-05 -3.45034432e-03 -1.76643569e-03 5.41757676e-04
      -3.60239996e-03 -8.95123463e-03 5.01056551e-04 -7.83576106e-04
      -8.03787407e-05 -4.84662177e-03 2.69982708e-03 -6.01994630e-04
      -3.75266653e-03 -2.33907066e-03 -4.41249838e-04 -5.57517493e-03
      1.52002205e-04 -6.04657736e-03 3.49511881e-03 -1.67478283e-03
      2.04393198e-03 1.06877303e-02 5.37645817e-03 2.24518662e-04
      -6.76560667e-05 -9.04408458e-04 -3.43994645e-04 5.54824248e-03
      5.02404757e-03 6.77227136e-03 6.83408370e-03 7.38257193e-04
      1.02154161e-04 2.27526808e-03 -2.58728443e-03 2.67372187e-03
      6.43235538e-03 -5.06572833e-04 -1.74878910e-03 -4.56363102e-03
      5.68851596e-04 -3.13968887e-03 2.80130329e-03 -2.96153850e-03
      -5.87821007e-03 1.46050658e-03 -8.25030293e-06 -3.71016026e-03
      1.35487775e-04 -4.02456336e-03 4.18623397e-03 4.99219960e-03
      7.00496486e-04 1.13926560e-03 -1.07407086e-02 -2.31202040e-03
      -1.37213196e-04 -9.62643011e-04 2.67894845e-03 -9.28071886e-03
      6.59198174e-03 -9.58285935e-04 -2.14495417e-03 7.62488984e-04
      -2.24394564e-04 3.42193758e-03 -2.13943585e-03 -4.55247331e-03
      2.72799795e-03 1.28162804e-03 8.00119713e-03 4.78744914e-04
      7.43725832e-05 2.10471684e-03 -5.17221168e-03 -1.05918776e-02
      -5.60322497e-03 -6.05479488e-03 5.47060743e-03 -1.90490173e-04
      4.81062925e-05 1.22636862e-04 -6.23266026e-03 -1.21529792e-02
      -6.14908384e-03 -3.26056848e-03 9.50259436e-03 7.32553672e-05
      6.11561263e-05 3.44568136e-04 1.29715598e-03 4.32412140e-03
      1.45175646e-03 7.97651708e-03 3.19230207e-03 7.70108600e-05
      1.53211731e-04 3.18492297e-04 1.43160252e-03 4.91325464e-03
      2.67141801e-03 1.04877981e-03 8.27345939e-05 3.85054300e-05
      8.48093187e-05 -9.34979980e-05 5.51256599e-05 3.78266122e-04
      9.29491594e-04 4.24587313e-04 2.88664130e-04 3.85054300e-05</_>
    <_>
      6.05066423e-04 6.16201898e-04 -2.13144682e-04 1.99765127e-04
      8.54231126e-04 -6.68613822e-04 -2.72994221e-04 1.73400535e-04
      -1.59252464e-04 -3.38513113e-04 4.56623471e-04 2.18507375e-05
      3.08565854e-04 1.71796972e-04 -7.84430231e-05 -1.13263908e-04
      -4.98173060e-04 -2.11796578e-04 -8.28009914e-04 5.90402912e-03
      7.40347011e-03 7.37147545e-03 9.86391315e-05 2.46174255e-04
      -5.03499468e-04 -5.80409961e-03 3.08098691e-03 -1.14661094e-03
      -1.50403446e-02 -1.90101052e-03 -8.50128708e-05 3.78454628e-04
      1.08114065e-04 -1.03635732e-02 4.61342628e-04 -1.02936532e-02
      -3.95941897e-04 -3.54926428e-03 8.93752184e-03 6.01027205e-05
      -3.26039473e-04 -7.61630153e-03 -1.41922617e-02 1.91925897e-03
      -1.83025580e-02 -2.02160585e-03 6.09251962e-04 -7.85102660e-04
      -2.10698796e-04 1.31541979e-03 6.74643880e-03 -8.44924618e-03
      1.72479998e-03 -1.64764244e-02 -1.68374889e-02 -7.55306159e-04
      4.96599314e-05 8.13056622e-03 2.18982119e-02 2.15151962e-02
      -6.92807231e-03 1.98566099e-03 -8.66802968e-03 1.25474564e-03
      -7.16561044e-04 7.54691241e-03 -1.70817680e-03 1.35850394e-02
      1.22248540e-02 -1.12151653e-02 3.89005546e-03 1.63305172e-04
      -4.16179770e-04 -9.60584439e-04 1.17127653e-02 6.61826273e-03
      1.28122782e-02 -5.89319412e-03 -1.14933580e-04 7.28232670e-04
      -7.49808969e-04 -3.70638445e-03 6.43503387e-03 6.80031348e-03
      -2.86018965e-03 4.03159065e-03 8.85598820e-06 6.96284522e-04
      -6.08511153e-04 2.99964752e-03 5.42184152e-03 -5.08960942e-03
      7.06376042e-03 8.80373176e-03 -1.04592997e-03 -1.78590235e-05
      -1.52851382e-04 8.90205614e-04 2.74596416e-04 -6.72030263e-04
      -3.06061981e-03 5.35031362e-03 -3.97170952e-04 4.72332140e-05
      -1.36833041e-04 -6.95582770e-04 -4.75884881e-03 7.71253789e-03
      -3.18390667e-04 3.60002997e-03 -3.07069393e-03 4.45716898e-04
      -6.70146954e-04 -7.05465034e-04 -6.97717955e-03 -1.00768087e-02
      5.71372081e-03 -1.92313257e-03 -1.07965302e-02 7.58193928e-05
      2.77766921e-05 -8.11139034e-05 -6.41584280e-04 -3.78946494e-03
      -5.27500268e-03 -2.45864014e-03 -1.60496365e-02 -1.13360264e-04</_>
    <_>
      1.53849869e-05 1.63982520e-04 1.02630336e-04 1.14709699e-04
      1.34611124e-04 3.29773102e-05 -1.36347066e-04 4.69368024e-05
      4.54796718e-05 2.09187798e-04 6.22141015e-05 -7.84797186e-04
      -3.58356792e-03 7.77885798e-05 6.34420372e-04 -1.00172903e-04
      4.21548830e-05 -2.82950023e-05 3.36577039e-04 -1.17626216e-03
      -1.23387901e-02 -1.90893200e-03 2.44125631e-03 -4.39174710e-06
      1.32252128e-04 -1.12342486e-05 3.10377055e-03 -2.99212872e-03
      -6.51141023e-03 -1.98997208e-03 3.72359389e-03 -3.32816271e-04
      2.27249024e-04 2.01697068e-04 1.89015828e-03 -2.73242407e-03
      -3.55065125e-03 1.12378784e-03 3.91939975e-04 -7.89275626e-04
      8.00835332e-05 -3.75794974e-04 -4.46298800e-04 -1.70802604e-03
      1.44596107e-03 -7.14179128e-03 -7.02216197e-03 -4.74788947e-03
      1.25582170e-04 -1.56293577e-03 3.67129617e-03 6.33532880e-03
      2.54842499e-03 5.18540735e-04 -7.12007284e-04 -2.41643516e-03
      2.77018669e-04 -1.11806230e-03 1.35055755e-03 7.54388806e-04
      -1.44947332e-03 3.07604298e-03 -2.40684114e-03 -7.29776220e-04
      1.02258135e-04 4.71062865e-03 5.18335216e-03 5.66677249e-04
      2.10985634e-03 7.18279602e-03 1.33971695e-03 -2.54459475e-04
      1.07569911e-04 1.32787635e-03 4.27305512e-03 -2.17781798e-03
      4.77493042e-03 1.08503725e-03 -2.02615600e-04 -7.53520271e-06
      -1.73816836e-04 -4.34032828e-03 2.12390814e-03 3.22567276e-03
      3.54707264e-03 2.30920338e-03 -3.52250808e-03 -4.26669401e-04
      8.02349750e-05 -6.86659757e-03 -7.31763570e-03 -6.60939608e-03
      1.56670751e-03 -8.79392377e-04 -4.11588093e-03 -9.30779497e-04
      -5.96679893e-05 -8.84227746e-04 -8.21253564e-03 -6.71030115e-03
      -7.89985899e-03 -7.21606240e-03 -4.60616825e-03 -9.15086712e-04
      5.39258435e-05 5.10175341e-05 1.76894967e-03 -9.54449119e-04
      -3.79763520e-03 -3.25090159e-03 -2.64179637e-03 -1.40570279e-04
      8.68087809e-05 -1.49517928e-05 6.74307870e-04 2.25604139e-03
      3.59889795e-03 4.40585020e-04 -2.34133244e-04 -2.81140547e-05
      6.36970290e-05 6.78345095e-05 2.99411950e-05 8.10416474e-04
      1.67058606e-03 -2.52688296e-05 -7.00517376e-06 -2.81140547e-05</_>
    <_>
      -2.24301056e-03 1.97741715e-03 1.14812683e-02 4.80091153e-03
      -1.72324874e-03 3.56921367e-03 3.51495505e-03 2.76068080e-04
      4.23073210e-03 -1.64748577e-03 1.28176576e-02 1.42708677e-03
      6.84798369e-03 -2.07009353e-03 -2.58380361e-03 3.57077015e-03
      -4.31419816e-03 6.16851449e-03 7.89893232e-03 -1.80831924e-02
      1.06080417e-02 2.86322255e-02 4.81729349e-03 2.33861385e-03
      2.82163057e-03 1.14141218e-02 4.28538546e-02 -2.04588789e-02
      -3.41927782e-02 -1.11016436e-02 3.55700217e-02 1.85882428e-03
      1.19822398e-02 -1.48447556e-03 -8.08209740e-03 -1.20973419e-02
      -1.29555929e-02 -5.38231060e-03 2.00469438e-02 1.86324883e-02
      6.50321227e-03 8.91524978e-05 -3.74508649e-02 -3.10408100e-02
      -3.58118117e-02 -7.34204240e-03 3.00125964e-03 1.39331790e-02
      6.40484178e-03 -4.44638692e-02 -1.30896950e-02 -2.74754651e-02
      3.37701440e-02 -8.99662543e-03 -2.57431976e-02 -5.06624440e-03
      1.28180264e-02 9.21882037e-03 3.76260350e-03 1.59828197e-02
      -1.46196308e-02 4.96293139e-03 -1.02171081e-03 1.38929710e-02
      -6.75446494e-03 4.39273156e-02 3.32947448e-02 1.50678223e-02
      1.90692104e-03 -3.65876127e-03 -1.70829780e-02 2.01866589e-03
      2.35104165e-03 -4.67487760e-02 -1.35259144e-02 -1.47112133e-02
      3.38386036e-02 1.00639537e-02 2.90536843e-02 2.94632686e-04
      6.96154917e-03 4.25134525e-02 1.84001476e-02 1.43112969e-02
      -2.88483407e-02 -2.99016945e-03 1.51525047e-02 1.07471808e-03
      6.94445008e-03 1.34151364e-02 -3.86333987e-02 2.22070348e-02
      3.51369642e-02 2.55133417e-02 2.10410468e-02 -1.22958468e-03
      -5.13006933e-03 -1.78987365e-02 2.36341711e-02 -1.08583400e-03
      1.08532384e-02 -1.92917828e-02 -1.26072159e-03 -1.92398136e-03
      -3.12817749e-03 -5.89461904e-03 -3.04304855e-03 4.65562306e-02
      1.03201047e-02 4.16230299e-02 -4.37599719e-02 5.24111465e-06
      -6.31264690e-03 -1.05117569e-02 -5.83287887e-02 -5.38322739e-02
      -2.07655900e-03 -5.04735149e-02 -9.44137108e-03 -5.03153533e-05
      2.59503303e-03 -3.87481693e-03 -2.66954415e-02 -3.55871618e-02
      -9.45898220e-02 -2.80424729e-02 -7.06513599e-03 -2.55074789e-04</_>
    <_>
      5.09739912e-04 8.66747228e-04 -4.51294618e-04 -5.44994138e-03
      -6.74973289e-03 -1.21846919e-04 3.46808956e-04 6.15205267e-04
      -6.99604047e-04 -6.00838684e-04 -2.38820259e-03 -9.94832907e-03
      -2.05779355e-02 -8.87526013e-03 4.84473351e-03 2.91995052e-03
      -1.22422483e-04 -2.04130448e-03 -1.09884329e-02 -4.14496474e-03
      -1.63197808e-04 -1.24133276e-02 6.56185998e-03 1.65538155e-02
      -1.45477767e-03 -1.75435876e-03 1.15004359e-02 1.13928784e-02
      8.56897328e-04 -1.12125266e-03 6.38058316e-03 -1.19120348e-02
      1.01185206e-03 -2.10445258e-03 7.62885530e-03 -1.14459649e-03
      -3.61623266e-03 3.85541236e-03 1.10674854e-02 4.21002973e-03
      -1.06067164e-03 3.40067013e-03 -5.35041327e-03 1.32985590e-02
      1.31721701e-02 7.50323944e-03 3.15700262e-03 1.90643035e-02
      1.03225932e-03 3.15311481e-03 5.67282317e-03 -1.39634414e-02
      5.45255025e-04 6.45181816e-03 -7.63339177e-03 3.11807846e-03
      1.30787957e-03 -1.04244594e-02 -1.59322633e-03 3.10212234e-03
      5.54112135e-04 -4.56621172e-03 -1.09533798e-02 -4.13954433e-04
      -4.93155210e-04 -6.15933305e-03 -1.91540699e-02 1.55011786e-03
      -9.49358195e-03 1.04694162e-02 -2.65530944e-02 6.20758859e-04
      -1.27805001e-03 -4.07797657e-03 -9.92369093e-03 -8.50982498e-03
      -1.83848455e-03 -1.33734448e-02 -9.50232800e-03 6.58994424e-04
      7.75890134e-04 7.59330578e-03 1.68319995e-04 -2.39685345e-02
      2.27254280e-03 5.16634621e-03 1.13131776e-02 6.95985102e-04
      -2.90351629e-04 1.45593553e-03 4.85372264e-03 3.14382068e-03
      4.95553855e-03 7.96670839e-03 7.27754971e-03 8.00572452e-05
      -1.17536134e-03 9.50885285e-03 -4.60275868e-03 -1.42224403e-02
      -1.71576440e-03 -7.04233116e-03 6.11300487e-03 6.55483047e-04
      -7.28597166e-04 3.15407780e-03 1.51852518e-02 1.05684083e-02
      8.70344695e-03 1.12042343e-02 1.49703200e-03 2.22411018e-05
      -1.08680208e-04 -2.09312362e-04 5.57304407e-03 2.78491788e-02
      1.52695877e-02 2.92681670e-03 -1.05994660e-03 2.22411018e-05
      -6.35572069e-04 -1.47938542e-03 -1.11483783e-03 -3.31950665e-04
      -4.20155382e-04 3.32785101e-04 5.58603962e-04 2.22411018e-05</_>
    <_>
      8.83607281e-05 -8.70863223e-05 -9.78994649e-05 -2.46422249e-04
      3.88067245e-04 2.05018187e-05 9.81005069e-05 1.79940311e-04
      -1.88360777e-04 -1.06804255e-04 -1.70059095e-04 5.79284642e-05
      1.14619953e-03 1.38050134e-04 -4.90560160e-05 1.05056642e-05
      -1.42217352e-04 -1.94256601e-04 -1.03870104e-03 2.69122701e-03
      1.25287045e-02 1.00044988e-03 5.99996943e-04 1.01946520e-04
      -1.41939847e-04 -4.88941034e-04 -3.02552921e-03 2.68993899e-03
      -4.48513264e-03 2.61199218e-03 6.47168839e-04 1.26552896e-03
      9.83324207e-05 -2.91353837e-03 -4.84728880e-05 2.55526695e-03
      -1.11002752e-04 -2.58214725e-03 7.15964055e-03 3.28925531e-03
      -5.09580306e-04 -9.55342839e-04 -1.14147388e-03 4.62682452e-03
      -8.80203303e-03 -2.83379806e-03 4.22626361e-03 4.03568940e-03
      -1.18467619e-03 -2.75629270e-03 -8.80764448e-04 3.69235710e-03
      -2.89817131e-03 -9.42758843e-03 -4.03813599e-03 1.10023364e-03
      -8.04296462e-04 9.58133547e-04 -1.49459211e-05 4.72846115e-03
      -4.81764413e-03 -3.10982950e-03 -3.43465176e-03 1.43646757e-04
      3.03728739e-04 5.49033610e-03 6.06299145e-04 7.24786846e-03
      3.29003832e-03 -9.31540388e-04 -4.46438184e-03 -8.85105474e-05
      -1.47050945e-04 3.21925123e-04 -9.41103674e-04 5.72565768e-04
      -1.02099283e-02 -4.01755655e-03 -8.67911673e-04 4.91549472e-05
      -4.65814577e-04 5.57381485e-04 6.93317037e-03 -1.67653139e-03
      2.58448441e-03 -1.59074122e-03 -3.03031923e-03 -5.15503401e-04
      -2.96688901e-04 6.97493926e-03 1.05093978e-02 -5.07937139e-03
      -1.55372894e-03 3.80390557e-03 -2.73473933e-03 -3.77501715e-06
      3.54896649e-04 4.87350253e-03 8.05266295e-03 1.66880921e-03
      1.82193599e-03 6.38354290e-03 3.54714197e-04 1.23131351e-04
      1.68994055e-04 -1.49927277e-04 4.21429798e-03 5.07008331e-03
      3.15812911e-04 5.20980544e-03 -1.67590135e-03 2.81845732e-05
      -1.07732325e-04 -3.71698011e-03 -4.86780191e-03 -6.19632332e-03
      1.41247956e-03 -8.17423279e-05 -4.11811145e-03 -4.06603613e-05
      1.27011706e-04 -1.27114845e-03 -1.30173634e-03 -1.36258011e-03
      2.80580105e-04 -1.28227635e-03 -5.61891263e-03 -3.01344589e-05</_>
    <_>
      -2.31390353e-03 -3.61433276e-03 -1.64498296e-03 -3.88554967e-04
      -1.37133466e-04 1.89205224e-03 -3.05435807e-03 4.23547812e-04
      -2.22120015e-03 -1.89083465e-03 -6.68539479e-03 6.27308991e-03
      -2.08295360e-02 -1.05569893e-02 -1.97914732e-03 -2.95012910e-03
      -1.27918529e-03 -3.54975788e-03 -3.29711922e-02 1.65115832e-03
      -2.94754817e-03 -2.05986314e-02 5.46484441e-03 -4.02016984e-03
      -1.86432258e-03 -1.46005722e-02 2.18926836e-02 -1.04205981e-02
      -1.39969960e-02 1.12100495e-02 -1.28114196e-02 9.75283515e-03
      -1.73960160e-03 1.83097553e-02 4.96075256e-03 5.16647939e-03
      -4.27617831e-03 -1.09955063e-02 8.28893110e-03 1.08693428e-02
      -2.91099865e-03 -9.20061488e-04 -1.95706338e-02 -5.00037568e-04
      -1.03794700e-02 1.27818380e-02 -7.87768792e-03 3.80325504e-02
      -4.13620239e-03 -2.03468911e-02 3.25721363e-03 2.14144331e-03
      1.26994494e-02 -3.58660147e-02 -3.03561706e-02 3.72901224e-02
      -1.16759306e-03 -9.10003670e-04 2.31064018e-02 -2.44537508e-03
      -2.95530856e-02 7.63891032e-03 -2.34031733e-02 -3.30950669e-03
      -1.77554030e-05 7.62413209e-03 1.62872877e-02 4.94413427e-04
      -1.06693981e-02 9.83838178e-03 2.76705679e-02 -1.39422575e-02
      -3.48097249e-03 -1.49534559e-02 -2.53316090e-02 -5.22532780e-03
      -1.90596879e-02 8.44579190e-03 9.84965824e-04 -1.53448544e-02
      -2.15946604e-03 5.29328361e-02 7.38624670e-03 -2.49691028e-02
      3.10718864e-02 1.76031049e-02 1.13555053e-02 -2.39929147e-02
      3.49794631e-04 -1.62247871e-03 1.06741749e-02 -3.60133545e-03
      -1.60227250e-03 -5.52367555e-06 -3.08406707e-02 -8.66111834e-03
      -2.72831268e-04 -3.56468838e-03 -9.75682214e-03 6.08592061e-03
      7.15294853e-03 -1.15310187e-02 -1.61051878e-03 -1.08989119e-03
      -1.52557518e-03 2.16401299e-03 1.31443487e-02 4.59908042e-03
      1.86084580e-04 1.46564450e-02 -5.09005226e-03 -9.19023179e-04
      1.31337869e-03 -1.53807923e-03 2.36685332e-02 -6.50754524e-03
      -2.50098240e-02 1.19299917e-02 -7.04065314e-04 1.96890396e-04
      -1.12956343e-03 9.58153803e-04 -4.67252266e-03 -7.99364224e-03
      8.74295831e-04 2.75241467e-03 1.93222601e-04 2.13411869e-04</_>
    <_>
      -1.78437494e-03 2.03654228e-04 6.68313703e-04 -1.66608184e-03
      8.45785835e-04 6.28687034e-04 -2.68233387e-04 8.48311640e-04
      1.50992384e-03 -5.26124029e-04 7.29276042e-04 1.24159409e-03
      3.42445471e-03 1.01470901e-03 -1.88421004e-03 1.51907036e-04
      -1.98101648e-03 -3.63748200e-04 6.54418441e-03 -1.53180351e-02
      1.22165363e-02 4.14999947e-03 5.29359467e-03 6.97500654e-04
      3.64915642e-04 -8.16726941e-04 1.11226933e-02 1.18236884e-03
      -1.30891765e-03 -9.32438485e-03 2.62759570e-02 1.07422201e-02
      -4.80784638e-06 1.16969342e-03 1.30174391e-03 2.86608376e-03
      -4.15004324e-03 4.06509638e-03 4.68286965e-03 1.28438352e-02
      -2.96427077e-03 -1.84786436e-03 4.64102207e-03 -5.80401020e-03
      -4.11016913e-03 -1.05487192e-02 1.07054338e-02 1.86304599e-02
      -1.56895467e-03 -3.42665031e-03 -2.50218604e-02 9.35253408e-03
      1.33379980e-03 -1.38875227e-02 -5.22875041e-03 2.67317630e-02
      -3.21518746e-04 -7.02140294e-03 5.42394863e-03 9.83009394e-03
      -1.25510050e-02 -2.53794324e-02 -1.67718548e-02 9.55373701e-03
      5.53023187e-04 3.94767663e-03 1.84012111e-02 1.77129230e-03
      -2.93670991e-03 2.66600371e-04 -1.02825304e-02 2.32414366e-03
      -6.25355868e-04 4.81452839e-03 -2.06539361e-03 4.01921198e-03
      -2.19757389e-02 -1.03509473e-03 1.27265565e-02 4.34138021e-03
      5.38619526e-04 2.04123501e-02 -3.33585800e-03 -6.26003370e-03
      1.71751268e-02 6.51307730e-03 2.83622071e-02 2.37034378e-03
      -6.62711449e-04 2.08078418e-03 1.81695307e-03 1.02874478e-02
      -1.72381271e-02 -4.79558762e-03 7.15687033e-03 -9.03569220e-04
      -4.51717526e-04 3.30657442e-03 1.32272616e-02 -9.25914384e-03
      2.45693885e-02 2.15978944e-03 -1.22729456e-02 -1.74744625e-03
      -1.88699062e-03 7.69597990e-03 6.29023975e-03 2.30670553e-02
      -1.85589399e-02 7.65431719e-03 -1.44401770e-02 -1.02793500e-04
      -4.04503691e-04 -1.05006131e-03 -9.39601101e-03 -7.54296128e-03
      1.26601495e-02 -5.38043305e-03 -5.35361329e-03 -2.04035823e-04
      -6.75916148e-04 -6.10374263e-04 -3.12860496e-03 -5.86003158e-03
      5.33735752e-03 -1.60026993e-03 8.74819467e-04 -1.01242331e-04</_>
    <_>
      1.44426522e-05 2.19076428e-05 1.75699352e-05 1.48207531e-04
      4.41743481e-07 -1.15947487e-05 -1.19778515e-05 4.40887970e-06
      1.23374393e-05 2.33569626e-05 3.44200147e-04 1.71785697e-03
      1.54814019e-03 3.31892428e-04 2.13526109e-05 -8.16849843e-06
      -8.76203558e-07 4.31062712e-04 1.03927427e-03 2.24142824e-03
      2.90492177e-03 2.30011391e-03 4.38655203e-04 -3.84507956e-07
      2.59488534e-05 6.20475214e-04 -1.42272608e-03 -1.98711525e-03
      -1.83284329e-03 2.29584402e-03 7.06675855e-05 2.21805726e-06
      -4.92002109e-05 -1.83099229e-03 -2.88726762e-03 -1.13414519e-03
      -1.39648549e-03 -2.02903501e-03 -1.23478545e-04 8.22616403e-06
      -2.14749380e-04 -7.25544756e-04 -4.91238665e-04 -1.21109653e-03
      -2.55292887e-03 -2.55711679e-03 9.13184544e-04 2.96545099e-04
      -1.45077851e-04 7.38570641e-04 7.73842155e-04 -1.46527786e-03
      -4.39736759e-03 -4.58460022e-03 1.20310535e-04 8.35272018e-04
      -6.67885542e-05 1.86972774e-03 2.04718485e-03 1.08283106e-03
      5.79044688e-04 -1.73758905e-04 7.28365791e-04 9.90865752e-04
      -5.92705073e-05 1.74256609e-04 1.12911337e-03 2.00582528e-03
      -1.21650181e-03 -1.29797290e-05 1.96000980e-03 7.60332914e-05
      -7.53510176e-05 -2.00649770e-03 -2.35262778e-04 1.61994505e-03
      -2.55371328e-03 -1.16422388e-03 2.50686985e-03 -4.15008108e-04
      -3.45252774e-05 -1.32088910e-03 5.07454341e-03 5.73480129e-03
      1.67871721e-03 7.92227511e-04 -1.43139565e-03 -7.13048794e-04
      -2.96957824e-05 -1.45398383e-06 3.61368642e-03 3.00038746e-03
      4.34272777e-04 -7.60081602e-05 -2.08133506e-03 -3.45847162e-04
      3.41499144e-05 -1.47579151e-04 7.28670042e-04 1.23252254e-03
      2.44735181e-03 1.64404430e-03 -4.97811649e-04 -1.12558728e-05
      4.87234647e-05 -6.99629716e-04 -1.63068541e-03 -1.66054454e-03
      -1.78235560e-03 -8.59514985e-04 -5.73193189e-04 0. 2.87579078e-05
      -1.09340809e-03 -1.97611260e-03 -1.50543556e-03 -1.44725305e-03
      -3.07698938e-04 -6.22739841e-04 -9.19164177e-06 -4.03965896e-06
      -3.29209928e-04 -4.00538265e-04 -1.09042558e-04 -1.54735360e-04
      -1.05832609e-04 -7.77031120e-04 -9.19164177e-06</_>
    <_>
      -1.72965578e-04 -1.76549976e-04 -2.04105672e-04 2.02710362e-04
      1.70652449e-04 -3.02631124e-05 5.42061316e-05 -2.62029448e-06
      -9.14415286e-05 -1.53006869e-04 1.59518138e-04 1.70140772e-03
      2.56123347e-03 1.07528584e-03 2.16843091e-06 -1.21978905e-04
      -1.56820184e-04 -9.31493196e-05 -2.73397280e-04 -1.43558439e-03
      -2.56617321e-03 2.39170063e-03 8.47308620e-05 2.80690554e-04
      -2.15878928e-04 1.72528162e-05 -5.35688829e-03 -3.49783059e-03
      -2.49334634e-03 -2.45231990e-04 -4.59630537e-05 3.68748279e-03
      -1.12627145e-04 -5.17198117e-04 -8.20138864e-03 -3.11824610e-03
      -5.64946514e-03 -6.13744929e-03 6.60056481e-03 4.10637062e-04
      -1.17185758e-04 -2.79466342e-03 -3.78872757e-03 -7.65406480e-03
      1.68420118e-03 -6.78016013e-03 -6.70259725e-03 -3.58707248e-03
      -1.48656720e-04 -2.20318255e-03 3.55073716e-04 1.80505565e-03
      -2.97536911e-03 -3.79941356e-03 -1.47502997e-03 -7.60141877e-04
      -3.20005092e-05 1.55160832e-03 1.22019055e-03 -7.37985654e-04
      -1.52767403e-03 -3.03567434e-03 1.41902769e-03 1.07429689e-03
      9.25179847e-05 2.31076847e-03 6.31611655e-03 -2.31814268e-03
      -6.84768241e-03 3.69201973e-03 6.00692676e-03 4.40268574e-04
      5.78499703e-06 2.90321349e-03 8.05872679e-03 7.97755364e-03
      -3.83658730e-03 4.91969846e-03 6.58522407e-03 8.99899867e-04
      -8.55058461e-05 -4.71635547e-04 4.47227573e-03 4.97182971e-03
      4.39526420e-03 4.18712758e-03 1.74337777e-03 7.60864350e-04
      -4.22940284e-05 -3.29040270e-03 -4.04517911e-03 -1.25954964e-03
      3.00980266e-03 -3.33472015e-03 1.37293630e-03 1.24660874e-04
      1.94385953e-04 -2.23585591e-03 9.09734285e-04 3.27240722e-03
      4.74060094e-03 -1.52165664e-03 -2.77419901e-03 -1.87904414e-04
      1.05003615e-04 -1.31789013e-03 -3.21175368e-03 -1.03448573e-02
      1.07027311e-03 -1.68892089e-04 -2.37791377e-04 -1.26980085e-05
      1.38261181e-04 2.94741021e-05 -6.13678654e-04 -3.38066230e-03
      -1.90308178e-03 2.45229487e-04 1.05670151e-04 0. 3.72527284e-05
      8.85608752e-05 1.18491851e-04 -1.03671759e-04 -3.15210054e-05
      1.97876827e-04 -2.71814497e-05 -1.26980085e-05</_>
    <_>
      5.59779037e-05 5.69458934e-05 2.70133460e-05 2.90960568e-04
      1.97963564e-05 -8.20056011e-05 2.82790370e-05 5.84292866e-05
      7.64354190e-05 -2.49208642e-05 2.09248465e-04 2.29589571e-03
      1.22955372e-03 4.41791111e-04 2.57892007e-05 1.55069083e-05
      -1.30680996e-06 5.20273788e-05 9.25458327e-04 2.63121375e-03
      3.25376494e-03 3.47781391e-03 9.28941881e-04 4.36399969e-05
      3.38043210e-05 4.10960725e-04 1.34753389e-03 -5.55875828e-04
      -8.97090998e-04 9.66605963e-04 1.13239174e-03 2.54064598e-05
      4.62919415e-05 -9.65364088e-05 -1.49249646e-03 -3.09349410e-03
      -3.71974963e-03 -5.84820099e-03 1.66937977e-03 -8.05505042e-05
      2.55232244e-05 -5.92284487e-04 -1.27229537e-03 -1.51270640e-03
      -7.42731092e-04 -5.53748757e-03 4.51089640e-04 -2.81053188e-04
      -1.54585014e-05 -5.30124235e-04 -8.55536957e-04 -5.84654976e-04
      -2.25115661e-03 -3.56411585e-03 7.56801688e-04 8.70357981e-05
      1.60843429e-05 9.50552349e-05 -3.60413309e-04 1.46573689e-03
      1.53987994e-03 -1.37312280e-03 1.71285402e-03 5.24287869e-04
      6.50325528e-05 1.22965008e-04 1.27289168e-04 1.37955847e-03
      5.36100357e-04 -2.61143292e-03 3.37985577e-03 2.62917893e-04
      -2.62743779e-05 1.61674886e-03 1.37192663e-03 2.64298054e-03
      -9.77311982e-04 1.18124753e-03 3.46962502e-03 7.94549123e-05
      6.55114945e-06 1.04492891e-03 3.45651037e-03 4.27127304e-03
      6.61273662e-04 8.38402659e-04 6.40865765e-04 7.98643014e-05
      -5.32568010e-05 2.12005718e-04 2.88634817e-03 4.22321912e-03
      1.86818128e-03 -9.83578269e-04 -1.21292938e-03 -1.67981518e-04
      4.90504608e-05 2.19138274e-05 1.96978101e-03 4.20984766e-03
      2.24076258e-03 1.20670353e-04 -3.44279106e-03 -1.10751535e-04
      -2.08180463e-05 -8.35130573e-04 -1.32804690e-03 -2.13026023e-03
      -1.07914233e-03 -1.53536035e-03 -3.27368430e-03 -2.42598690e-05
      3.53982250e-05 -1.23014359e-03 -1.61678181e-03 -1.43425970e-03
      -1.56698329e-03 -1.79729215e-03 -1.33827899e-03 -4.85197379e-05
      -5.07068507e-05 -1.51705128e-04 -1.68399638e-04 -6.39841237e-05
      -7.92757346e-05 -2.43666815e-04 -6.14422388e-05 -2.42598690e-05</_>
    <_>
      -4.77310736e-04 -5.46932046e-04 -1.98522539e-04 8.47137242e-04
      -6.69464353e-04 1.88438702e-04 -1.77079884e-04 3.14467143e-05
      -2.85274786e-04 -6.15054683e-04 -5.39230241e-04 7.13306217e-05
      -3.05981375e-03 -3.28563969e-04 -3.64698644e-04 3.30637777e-05
      -3.41044070e-04 -3.34379467e-04 -1.27034949e-03 -4.40521771e-03
      -1.47117525e-02 -2.84371362e-03 -2.77676358e-04 3.32721356e-05
      -4.09364293e-04 -4.73531109e-04 1.80035643e-02 -2.53264792e-03
      1.84358237e-03 -5.59490360e-03 -5.45316376e-04 -5.77229293e-05
      5.14738960e-04 3.16562550e-03 9.06854123e-03 7.79182767e-04
      3.36579396e-03 2.94553605e-03 -6.50619157e-03 -1.02535030e-03
      1.12170249e-03 4.20703227e-03 -5.14915586e-03 -3.19854054e-03
      5.88287972e-03 -6.58536935e-03 -5.64464368e-03 -3.66005627e-03
      1.59083284e-03 5.17312391e-03 7.57017313e-03 1.16594922e-04
      5.80079388e-03 2.22934526e-03 -6.31252420e-04 -2.39100051e-03
      9.99688986e-04 1.91953545e-03 -6.99498178e-03 -3.07438360e-03
      1.26488518e-03 5.64190140e-03 1.36658817e-03 -1.57143828e-03
      7.89771613e-04 4.63498943e-03 6.72967127e-03 -4.58324933e-03
      2.10182602e-03 5.31258201e-03 -1.06375804e-03 -2.05861125e-03
      -2.37458880e-05 1.34011207e-03 7.57569261e-03 -2.88100936e-03
      1.74762274e-03 -8.50915036e-04 -9.98444040e-04 -4.23086196e-04
      1.39702010e-04 -1.86345377e-03 -3.73929064e-03 3.70014296e-03
      4.83466632e-04 1.36734603e-03 -2.30046548e-03 -1.44676393e-04
      -5.58301053e-06 -4.36000479e-03 -1.22710280e-02 -6.34449115e-03
      3.97139601e-03 -3.49668262e-05 -4.61795600e-03 -1.56704092e-03
      -1.76445392e-04 -9.44997068e-04 -6.24949671e-03 -3.11168632e-03
      -9.82667226e-03 -1.05057396e-02 -8.94417893e-03 -1.51924102e-03
      -1.05980420e-04 3.71643971e-03 1.33560665e-04 -5.12671052e-03
      -1.09381136e-02 -1.17005818e-02 -6.18678471e-03 -2.55419756e-04
      7.56046938e-05 5.55776898e-03 8.23188759e-03 2.00262945e-03
      1.56978401e-03 -1.72990980e-03 -6.46798231e-04 -5.10839491e-05
      -1.87065998e-05 1.50061725e-03 2.26560351e-03 3.50093632e-03
      3.28384875e-03 -1.54815585e-04 -1.18716656e-04 -5.10839491e-05</_>
    <_>
      -6.27714721e-03 -2.15845183e-03 -5.03550097e-03 -1.81466050e-03
      -3.50286649e-03 2.42435541e-02 -4.32198588e-03 -5.17281063e-04
      1.09880129e-02 -8.13493039e-03 1.39850508e-02 2.37480421e-02
      -5.80554188e-04 5.88949164e-03 -6.54837023e-03 7.69555382e-03
      1.55741151e-03 7.76587846e-03 1.51769258e-02 -1.17381653e-02
      4.37709456e-03 -1.52905975e-02 -5.27894404e-03 3.93778784e-03
      -8.42930097e-03 4.51668538e-03 5.42311883e-03 -5.26728155e-03
      2.64692795e-03 -7.68595422e-03 4.77705197e-03 -2.00043852e-03
      7.68577866e-03 1.93825290e-02 -3.27217509e-03 -7.40883464e-04
      -3.96459177e-03 2.52606254e-03 -3.57286981e-03 1.81606896e-02
      -9.94941592e-03 1.92639371e-03 5.48129994e-03 7.95664528e-05
      -6.62238861e-04 -2.12810788e-04 -1.62665659e-04 3.85746695e-02
      3.62859406e-02 -7.66939623e-03 -5.42556401e-03 -4.16560611e-03
      3.84761952e-03 7.02208700e-03 -2.99364515e-03 -1.99248502e-03
      1.67216584e-02 4.60194284e-03 -2.48364941e-03 -3.88491689e-03
      -7.26874731e-03 -7.82551058e-03 3.58578679e-03 -1.93249788e-02
      -1.23822950e-02 -4.64696158e-03 -3.09640681e-03 -2.56732758e-03
      -1.10232178e-03 -4.10487317e-03 -1.28546432e-02 1.15541900e-02
      2.47370359e-03 1.27754826e-02 -8.43793154e-04 1.92572398e-03
      -1.41574712e-02 1.43418266e-02 7.01511046e-03 2.71507017e-02
      1.81805287e-02 -2.10236083e-03 -9.70681547e-04 -3.76136438e-03
      1.33723067e-02 -5.71799511e-03 -8.82337429e-03 9.23095644e-03
      1.12290950e-02 -1.35075096e-02 -2.91387457e-02 1.53583493e-02
      -3.04692355e-03 4.06321138e-03 3.79015901e-03 -8.96289665e-03
      6.90738531e-03 1.01353396e-02 2.22792272e-02 -6.78413268e-03
      -8.64503067e-03 7.24309124e-03 3.52960778e-03 -2.88295117e-03
      -4.07653023e-03 8.15043983e-04 -1.59467887e-02 9.10312589e-03
      2.25903653e-02 -3.35054919e-02 -1.02253100e-02 -1.45319279e-03
      9.95170884e-03 4.79256688e-03 5.38298814e-03 -9.03160311e-03
      -1.20198419e-02 1.70385502e-02 -2.32423507e-02 -7.62055162e-04
      -5.24857780e-03 -6.50458317e-03 -2.05787583e-04 1.39492070e-02
      5.47246728e-03 -4.53150918e-04 4.03972752e-02 1.17605567e-04</_>
    <_>
      1.01936364e-03 1.08367135e-03 1.24460424e-03 -1.03404594e-03
      2.50590412e-04 -1.07344997e-03 3.71636794e-04 4.86640958e-04
      2.99252896e-03 7.14763009e-04 2.44668336e-03 6.44310704e-03
      1.82843078e-02 -1.01154658e-03 7.25216698e-04 4.49970452e-04
      -2.30729071e-04 1.19611528e-03 6.02767756e-03 4.05630982e-03
      1.33328168e-02 1.76140741e-02 2.14133924e-03 3.67972476e-04
      3.65232438e-04 7.86170247e-04 6.17222581e-03 -1.59880891e-02
      2.19855364e-03 -1.43554332e-02 1.01664681e-02 1.16411690e-02
      1.97649337e-04 2.81078537e-04 1.06118694e-02 8.63954239e-03
      -1.33330943e-02 -5.80022112e-04 2.10333504e-02 2.82163266e-02
      6.45459048e-04 1.18993809e-02 1.99823640e-03 -1.03883725e-03
      -1.09149711e-02 -8.95820995e-05 1.20490119e-02 8.46126396e-03
      -7.40772302e-05 9.71976761e-03 -1.07025243e-02 -1.84096079e-02
      1.37292198e-04 -2.83732661e-03 -6.79044891e-03 2.60057184e-03
      -1.92767277e-03 1.60687044e-03 -2.58323085e-02 1.19725196e-02
      -7.84662738e-03 -1.49978781e-02 -2.50658463e-03 7.79461162e-03
      -1.02738698e-03 -1.10119516e-02 1.79945736e-03 4.75931680e-03
      1.17994975e-02 -2.71126963e-02 -2.83870217e-03 1.11528337e-02
      1.00877695e-03 4.33545932e-03 -6.46762317e-03 1.78612322e-02
      -1.16485090e-03 1.79811697e-02 -6.94241282e-03 3.49652371e-03
      -1.57126202e-03 2.36458126e-02 3.50965856e-04 2.15402059e-02
      1.64359121e-03 -2.72244178e-02 7.69512355e-03 2.13948288e-03
      -1.29498751e-03 1.64804161e-02 6.69545541e-03 -3.02948453e-03
      2.31346535e-03 1.31170787e-02 1.00860354e-02 3.76850716e-03
      -1.17478927e-03 2.47542677e-03 1.58522744e-02 9.71209444e-03
      1.41654471e-02 1.63080785e-02 7.67092686e-03 3.23306606e-03
      2.73583264e-05 -2.55936803e-03 2.62400205e-03 1.40011590e-02
      1.30558396e-02 6.12115441e-03 -1.30828773e-03 -7.05980172e-04
      1.66161903e-04 -2.59660045e-03 -5.97897777e-03 -1.20986477e-02
      1.66097120e-03 -1.41830081e-02 -8.28391872e-03 -1.21159584e-03
      -1.48257497e-03 -6.36661571e-05 -1.64526410e-03 -4.58214991e-03
      -1.67603474e-02 -6.16879808e-03 -2.34080036e-03 -8.41069777e-05</_></support_vectors>
  <uncompressed_sv_total>1050</uncompressed_sv_total>
  <uncompressed_support_vectors>
    <_>
      1. 1. 0. 0. 1. 0. 1. 1. 1. 1. 1. 1. 1. 0. 1. 1. 1. 1. 5. 68. 36.
      1. 1. 1. 1. 1. 44. 218. 188. 50. 2. 1. 0. 1. 132. 128. 66. 178.
      27. 1. 1. 2. 165. 24. 0. 87. 118. 1. 1. 37. 137. 1. 0. 9. 150. 9.
      1. 105. 87. 0. 1. 0. 129. 28. 1. 144. 27. 1. 1. 1. 106. 45. 1.
      138. 16. 30. 1. 1. 138. 40. 1. 130. 77. 69. 1. 12. 195. 23. 0. 75.
      180. 150. 19. 111. 192. 8. 1. 0. 53. 145. 229. 227. 47. 1. 0. 0.
      0. 18. 87. 75. 2. 0. 0. 0. 0. 0. 1. 1. 0. 0. 0. 0. 0. 0. 0. 1. 0.
      0.</_>
    <_>
      0. 0. 0. 0. 0. 1. 1. 0. 0. 0. 0. 0. 1. 2. 8. 3. 0. 0. 0. 0. 1. 11.
      130. 26. 0. 0. 0. 1. 6. 132. 237. 42. 0. 0. 0. 4. 128. 165. 87.
      31. 0. 0. 0. 64. 189. 29. 78. 14. 0. 0. 16. 180. 110. 1. 79. 2. 2.
      1. 87. 145. 40. 11. 78. 1. 0. 8. 171. 21. 0. 73. 44. 0. 0. 64.
      106. 1. 11. 139. 12. 0. 1. 110. 22. 0. 101. 105. 0. 1. 2. 117. 12.
      98. 177. 22. 0. 0. 0. 142. 222. 210. 31. 0. 0. 0. 1. 76. 138. 57.
      1. 0. 0. 0. 1. 5. 9. 1. 1. 1. 1. 0. 1. 2. 1. 1. 1. 1. 0. 0.</_>
    <_>
      0. 0. 1. 0. 1. 1. 0. 0. 1. 1. 1. 1. 1. 1. 0. 0. 1. 1. 1. 10. 32.
      1. 0. 0. 1. 1. 16. 148. 179. 19. 1. 0. 0. 1. 66. 188. 86. 71. 0.
      0. 1. 1. 116. 59. 7. 86. 0. 0. 1. 1. 143. 18. 0. 85. 1. 1. 2. 1.
      135. 4. 1. 65. 15. 0. 0. 1. 106. 1. 1. 36. 43. 1. 1. 4. 90. 1. 0.
      11. 70. 1. 1. 7. 86. 1. 1. 5. 92. 1. 0. 6. 78. 1. 1. 11. 86. 1. 0.
